Layer 0
-0.7405810531992778 ,0.46448821511347993 ,0.6715524102886716 ,1.0449767000522905 ,0.42121538018729526 ,-0.6715037400759699 ,-0.10241999425946768 ,-0.8956796261040731 ,-0.49665427085078795 ,0.0910305734279993 ,-0.4704452742331168 ,
-0.329254286668777 ,-1.139466903663768 ,-0.9108414396143671 ,0.3015516553165155 ,-0.5265197879817793 ,-0.0629009321162759 ,1.1008183653146357 ,0.09078043936432549 ,-0.4136403239502577 ,-0.7533083520007036 ,0.7570035790084109 ,
-0.5841101466348687 ,0.7675643456303225 ,-0.8366151802817197 ,0.5468874675074727 ,-0.29953289652250714 ,0.6866392612197586 ,0.6854924073458731 ,-0.16869782912189776 ,-0.5127276599654605 ,0.6036724435124041 ,0.4474765722144068 ,
-0.7940081667358501 ,-0.2518619471427221 ,1.3564113162131366 ,0.72187421162188 ,-0.8779369571225651 ,1.1081347740055019 ,-0.2227400677767829 ,1.0822287519766396 ,0.9406321614079206 ,-0.17211772087973595 ,-0.2035912727510422 ,
0.6943335636244943 ,0.7157204150783696 ,0.9516425701269975 ,-0.4649170756159422 ,0.8635522756398778 ,-0.7991129937066416 ,1.1087289635965276 ,0.8892752780634541 ,0.589793276858573 ,0.8162621302859597 ,0.8984546245739742 ,
-0.37699921304723416 ,-0.6884016653612258 ,-0.19450333382470608 ,0.4164151226454969 ,-0.985858026973453 ,0.9238268766419789 ,-0.409954307685388 ,0.12933910162383444 ,-0.16131414685928458 ,-0.22583561825055343 ,0.15092993073678612 ,
0.506709707177337 ,-0.7576606008396751 ,0.47091843741560463 ,-0.7697652026105551 ,-0.9342828391302069 ,-0.819000026152372 ,0.4183225453109469 ,-0.8896261034292533 ,0.2974082124567587 ,0.6995791459909668 ,-0.3722822902627523 ,
0.6364795487860303 ,-0.8799417252997873 ,0.21239194569354602 ,-0.7290601972182558 ,0.6547837968994675 ,0.9122414856036778 ,-0.048378760776373896 ,0.638860490744603 ,-0.5874243323020372 ,0.20288889183168762 ,-0.2345511343381747 ,
0.32712120440209824 ,0.21901472713146658 ,0.43736341134667805 ,0.27265664191388655 ,-0.7374765377666853 ,-0.3214407850001142 ,0.3861787467326775 ,-0.951047722662141 ,-0.966235614141573 ,-0.4889234074908587 ,-0.7739729763683881 ,
-0.9093955525007973 ,0.8614184702628078 ,0.35702615595430626 ,-0.39045254612007313 ,0.8324423774810168 ,-0.23668867931169635 ,-0.2603057007786951 ,0.476241757198542 ,0.6234419009193228 ,0.19504942504040143 ,0.6646375389222884 ,
0.5301553021112484 ,-1.05034553263255 ,0.10309735616798033 ,0.44663486410797637 ,-0.017653056595375638 ,0.49226950726212537 ,-1.0285915204479865 ,-0.47050433592748575 ,-0.6528173671122497 ,0.9644326536264058 ,0.441002043295051 ,
0.4262879413134187 ,-0.9159206387840098 ,-0.4703665113395428 ,-0.3902908057123343 ,0.6749712003220264 ,0.807499439449437 ,0.5638701709780714 ,-0.6236743982209756 ,-0.43571064143387594 ,0.8147797543423028 ,-0.4365327636215597 ,
-0.7035121789481359 ,-0.5583431664834498 ,-1.0594372004287405 ,0.7433814686496849 ,-0.6450255150636693 ,-0.11889090346907455 ,0.7518173735171501 ,0.6895790973442606 ,0.3270149376937697 ,-0.6900509800098561 ,0.32635166289383605 ,
-0.2518568684302714 ,0.6598290677592211 ,0.18596464590229211 ,0.34743522421782425 ,0.9640410409355604 ,-0.11295801763447766 ,0.025293163140712435 ,0.8016550082653332 ,-0.7560580757157853 ,0.04860120610614525 ,0.36669188231756106 ,
0.8614270569776382 ,0.18686189403942016 ,0.6377634018835979 ,-0.6852241377836973 ,0.6874410656730565 ,-0.16813196363191085 ,-0.15124827245585204 ,0.5774561907387485 ,-0.820988960055594 ,0.1619769019964864 ,0.8249625997588651 ,
0.338420882685678 ,-0.12191519469233059 ,-0.30013762856553916 ,0.1647279505873544 ,0.8049881345897896 ,-0.6964109596200485 ,0.2690873224584206 ,-0.3106464594828705 ,0.2296078628149995 ,-0.9233366652894397 ,0.49723850667027214 ,
0.08279735120462271 ,-0.33753010585726406 ,0.11357363610023265 ,0.8302432626305501 ,-0.3269365848645992 ,-0.29206230580440096 ,0.14685224826285775 ,-0.45869781554733985 ,-0.31926241200953726 ,0.6672831631230174 ,-0.36540202051350856 ,
-0.12080624028949409 ,-0.46710358185369794 ,-0.7498697667433496 ,-0.3051051490036777 ,0.7099956756336366 ,-0.7808671640832255 ,-0.6357761343403399 ,0.845710798143729 ,0.13813538828289196 ,0.07818935123243162 ,1.1118250548818116 ,
-0.5379378659301688 ,-0.0904003583092564 ,0.13781647720495133 ,-1.1063144362146344 ,-0.01766827627827537 ,-0.7892919003776717 ,0.17366899588660636 ,-0.5253875143444356 ,-0.9842555831305441 ,0.8590006459587122 ,0.7111820690115623 ,
0.084989683777552 ,0.6338481418452407 ,0.27442897656005466 ,-1.19093196165523 ,-0.5754319593942289 ,-0.9558013426049415 ,-0.2312782309849205 ,0.20778876514164113 ,-0.16272936147637443 ,-0.2982715395253047 ,0.8906224143749735 ,
-0.747205510272451 ,-0.806881010129203 ,0.9048632259535938 ,0.3867683303424584 ,-0.8698085181195532 ,0.2006038720991002 ,0.564339471578623 ,0.35734872633914394 ,-0.8194994747668336 ,-1.2057605634803983 ,-0.5610968904224851 ,
-0.9672520948423061 ,-0.5475842598574449 ,0.29010139316808103 ,0.904340138315427 ,-0.3672472235965773 ,-0.1916605881942411 ,-0.1325400205281054 ,0.30076413339045077 ,0.8700798989476074 ,-1.0745670354460826 ,-0.2248723282610412 ,
-0.7602430125128419 ,0.11762610602775811 ,0.14634116387275004 ,-0.9638111803025068 ,0.7955795763794828 ,-0.20023459343417552 ,0.9293151869750006 ,0.31298502036692216 ,0.3655181276691247 ,0.4954644215975466 ,-0.5198623677541664 ,
0.05867121678398293 ,-0.35792661059623093 ,0.7513751125476207 ,-0.5888149660537512 ,0.9751687636288989 ,-0.6910383828682807 ,-0.31826580088622175 ,0.5926042945894596 ,0.2651336994674179 ,0.12858475219957946 ,-0.6717521033043529 ,
-0.7109258738357169 ,-0.08122366618266513 ,0.2068693990895613 ,-0.3809192885247895 ,0.07983173170942548 ,0.6104593949790814 ,-0.25034486230643077 ,0.26044926362341947 ,0.9258876006815469 ,1.2055601826928855 ,0.7953236039520443 ,
-0.8761471572194337 ,-0.03805364178189752 ,-0.9512269592346483 ,-0.4767691870715491 ,0.8281171233731391 ,-0.4300664289778619 ,-0.8560881220069617 ,-0.9182244220513204 ,-0.7527288889549206 ,0.7023067970983131 ,-0.5484775144675876 ,
0.6027329099058755 ,-0.7322685305157361 ,-0.640928231723427 ,0.5358964016568658 ,-0.3724091141691103 ,-0.1915632690776869 ,-0.04260483245055977 ,0.4201173299093444 ,0.06290071175158432 ,0.5831900713795679 ,-0.18720521915201088 ,
0.4764106577004464 ,-0.8464033861374733 ,0.147684676752058 ,-0.7690508557897847 ,0.03505941436082192 ,0.01888958228158033 ,-0.8909199197380816 ,1.1066433346759432 ,-0.1007797799929403 ,-0.8800954969999993 ,-0.1580280654392716 ,
0.2825803675940349 ,-0.9169122391066209 ,-0.5039273151384284 ,0.2991947973656547 ,-0.6748778377092528 ,0.08884824869392899 ,-0.156357652744968 ,0.9672156755982797 ,0.12009054472302412 ,-0.7286499937940893 ,-0.6511258040113073 ,
0.32101216377964165 ,-0.6239370169675139 ,-0.49546267316004994 ,-0.06704947198063355 ,0.5500222361565132 ,0.15946096926856615 ,-0.03213822369255334 ,-0.5727835495948491 ,-0.8875572996967703 ,0.9322851165772963 ,-0.4196479167274456 ,
0.3894042422850016 ,-0.222818597103469 ,-0.8083379301648829 ,0.41747445977219816 ,0.9467311104010003 ,-0.7769370873029755 ,-0.6880178783137636 ,0.5871275874167857 ,0.15072343176634986 ,0.8129997276769303 ,0.10559836084775648 ,
0.445528933121236 ,-0.002896371134181397 ,0.12224335521474737 ,0.8010628907453452 ,-0.7167582973700156 ,0.6571234582869785 ,-0.3842620292321864 ,0.27028525259294334 ,-0.7119414994581856 ,-0.734321373237334 ,-0.24300420389070232 ,
-0.7051111309522022 ,0.26074660024961166 ,-0.055440470847563914 ,-0.34666010703176703 ,-0.21938517571733535 ,0.2690031152338134 ,0.32792480941929425 ,0.6758631436669347 ,-0.7978249959393934 ,0.7391640695529111 ,0.7844801631551808 ,
0.542832563992615 ,-0.4342227621193395 ,-0.5239217983894742 ,0.4549084816170721 ,0.9847027668732432 ,0.7546113826881992 ,-0.8735945922699371 ,-0.6489341040607747 ,0.1466907525726665 ,-0.34647636219121863 ,-0.9871975695133095 ,
0.29057157354783764 ,-0.2291746178810912 ,-0.8740826971845433 ,0.8825759155697486 ,-0.17857867874700167 ,0.6441307660749241 ,-0.4467188787177822 ,0.4860828692131079 ,0.5214835250623019 ,0.051900840774906164 ,0.8241311072773065 ,
0.3798539251877149 ,0.22429549848314434 ,-0.8117238554455648 ,-0.4786652290368427 ,-0.9892981745604962 ,0.761958320794308 ,-0.24393598926941715 ,0.6653500930951777 ,0.3909575552118753 ,-0.5927754387095671 ,-0.3549505733390266 ,
-0.8608561169062827 ,0.32572148096757236 ,-0.2500841153709826 ,0.786278953351485 ,-0.4481905704994399 ,0.8495235714514103 ,-0.08644226173009316 ,0.03284272145723441 ,0.030160266647224973 ,-0.9901613560863551 ,0.3572975603567912 ,
-0.18709255652127335 ,0.6799117956955009 ,0.8194922242012885 ,0.6197846183564463 ,0.04412264261045441 ,0.3079104677344159 ,-0.32387778179989635 ,-0.2228694657469616 ,0.019556206094921265 ,-0.6794394791446299 ,0.6219220011389156 ,
0.23595501852810563 ,-0.008918070793037766 ,0.5112291812695418 ,0.21416082355450095 ,0.20668892883929557 ,0.9383434089841347 ,0.7387119645814456 ,-0.1380688481404336 ,-0.8830716435961283 ,0.6005238343797082 ,0.10897733617219293 ,
1.0456935590563181 ,-0.46839223856222667 ,-0.6074470369360533 ,-1.0900913614285008 ,-0.14851861601080543 ,-0.7092002925950509 ,-0.3263415505279232 ,-0.42633821467958166 ,0.3469566902256283 ,0.5775990280994634 ,-1.0843952244928992 ,
-0.45562350667491774 ,-0.803358682521055 ,0.5869038184337801 ,-0.6871419888957273 ,-0.6179050019684764 ,0.22428130376774955 ,-0.8216382116332828 ,-0.624977611598896 ,-0.12826262129350333 ,-0.6364735955596801 ,0.6926944980346876 ,
0.39003908591276026 ,-0.8172025801809422 ,-0.03265788809335346 ,0.6297109854398881 ,0.40588115874484015 ,0.35700164523142275 ,0.717536252703412 ,0.27010177462440904 ,0.7399168774705676 ,0.2931546562812587 ,0.7374127852791116 ,
-0.5108730359168973 ,0.5108696956878686 ,0.055872765394436 ,0.840442604789323 ,0.8179663559922336 ,-0.9605601214180254 ,0.2138859428872196 ,-0.3124631241915976 ,-0.7154593236489588 ,0.1111255414428737 ,-0.7805976506629395 ,
0.7203569133724619 ,-0.20528938393060914 ,0.11705295551812829 ,0.6050591667006073 ,-0.8163289327802463 ,-0.11202659085827266 ,-0.0024273860390433555 ,-0.14810097102627484 ,-0.07937981271577127 ,0.31679110770790114 ,0.6917103571643587 ,
0.6411623023608135 ,0.6031249239416 ,0.43538633440181357 ,0.5839039371436074 ,-0.4935915730905902 ,0.15043720440609315 ,0.29309842147455784 ,-0.9871688501136123 ,-0.8945805627602447 ,0.813977462942981 ,-0.7700269406762051 ,
-0.32858583877871694 ,0.7260147211219017 ,0.0364608322613812 ,-0.6826620563244891 ,0.5459271304535992 ,0.022549538905807215 ,0.17415703567141422 ,0.9428929504287141 ,0.45533764369475643 ,0.38186293825321477 ,0.19404504377091203 ,
-0.9335167003900853 ,0.3596040296107573 ,0.35215958779059475 ,-0.8998104897032628 ,0.8351882994320752 ,-0.19200664474477985 ,1.0726253879786878 ,0.7328621794425887 ,-1.1176089351098812 ,0.23425698371647113 ,0.052974013422165796 ,
0.8445767142022642 ,-0.7981835651899115 ,0.3424868389302176 ,0.10688387707915399 ,0.8988036750283331 ,0.6975772363415393 ,-0.27230641085300233 ,0.48957803376238446 ,1.0069060481618597 ,-0.07496071031710748 ,-0.586616643080054 ,
-0.8125862924340591 ,0.5642769028973065 ,-0.310316989142356 ,-0.7780791107687756 ,0.814143339265477 ,-0.7858214972482636 ,-0.3051203462179783 ,0.5406927570379173 ,0.7239767614813946 ,0.49313947283300835 ,-0.7198457659150422 ,
-0.06077881915669029 ,0.07941634639706763 ,-0.2163239486604143 ,0.9564101426824227 ,-1.019576305647183 ,-0.14916350805887915 ,0.03477024611200911 ,0.4126762355351168 ,0.523560144913507 ,1.0928005355568304 ,-0.9864500614633482 ,
-0.17157484172285517 ,-0.4949170532860063 ,-0.2634860844826166 ,0.970866674141161 ,0.958872283582784 ,0.7826520818117212 ,0.7099373038335314 ,-0.22698181785981456 ,0.4580774489192749 ,0.15382590171176647 ,-0.3850663461549736 ,
-0.7294735583664462 ,-0.4108801799616941 ,0.08934388169810019 ,0.27149388018470266 ,-0.8890319537606496 ,-0.9736814841965442 ,0.49167360571822566 ,0.20788423756910102 ,-0.4263143182955484 ,0.042397906761100515 ,0.14920612759588617 ,
0.28449845134661056 ,-0.9311666363844644 ,-0.8278106915024084 ,0.15562153763414757 ,-0.4676163160545539 ,-0.04404020800005474 ,-0.6391716926156059 ,0.6327685424682173 ,0.055598400841384246 ,0.8713842732908792 ,-0.43856657010211697 ,
-0.03578415328194373 ,0.3425828434681487 ,1.058401651847168 ,0.705196899760195 ,0.44775709582981593 ,0.0036402599261664914 ,0.9586568444444267 ,-0.6548119931995625 ,0.5645929137756905 ,-0.47769937936042733 ,-0.5388569435085552 ,
-0.6524661308396388 ,-0.7478690512659241 ,-1.0121659650081993 ,0.13076417732753104 ,0.10586506906971288 ,0.038702469231003546 ,0.06263245700726278 ,0.273543349431371 ,-0.09336224543409312 ,-0.055453508956296776 ,0.12387281167294631 ,
0.3403568167834725 ,-0.5046672720138425 ,0.5967239721064082 ,0.5902922835378982 ,0.45041806800680667 ,0.3343235320796975 ,0.8163926363267441 ,0.10411619417256548 ,0.09897553009451092 ,-0.5103440626246748 ,1.0066951218656333 ,
-0.6450276977892588 ,-0.44359359277546795 ,0.19328865206100584 ,-0.26327084001044493 ,-0.9404731226109917 ,0.2526098825441977 ,-0.5814714120492158 ,0.8089951684005506 ,0.4319520395841089 ,-0.7784821423990493 ,0.2906118507194715 ,
0.15815658264506022 ,0.037078520951761895 ,1.001644011064699 ,-0.07353867389644263 ,-1.0040399858770643 ,0.5716854533045148 ,-0.7094956717780392 ,-0.36165973072399715 ,-0.7421529466435748 ,0.5953503689910048 ,-0.2615565549393895 ,
0.21895366081709774 ,-0.7318245048861037 ,-0.625876199711327 ,0.7858653773370234 ,-0.09826816063042249 ,-0.30174183901446106 ,0.8730092619381327 ,-0.503332385234462 ,-0.8386859595693753 ,-0.6599886426432316 ,0.10796318469505461 ,
0.3064762886521608 ,-0.8782135018228135 ,0.6167378204101726 ,0.6567226240852003 ,-0.009565656330612578 ,-0.8407129255773611 ,0.22058116323259008 ,-0.5143746010133889 ,-0.09997336259113185 ,0.6075975294358468 ,-0.9911417409069597 ,
0.26607749477319725 ,-0.603610734917059 ,-0.34519029524837186 ,1.023554283774114 ,-0.8945381090681283 ,-0.7037689890712799 ,0.6594934082508759 ,0.23162574576720338 ,-0.663907252447139 ,0.2881685039526263 ,1.182280812914915 ,
-0.6995015780169349 ,-0.5342908000321771 ,0.2387360579138567 ,0.4728820349281407 ,-1.1106543182735882 ,0.45213211648027096 ,-0.7970262263666171 ,0.6491327305134468 ,0.22445784118725468 ,-0.8116647186056858 ,0.05557253815583753 ,
-0.3886847755275425 ,-0.5662742821973499 ,-0.3216786424737707 ,0.6245261575978386 ,-0.7383071149784485 ,-0.6942077404250813 ,-0.8223219437072427 ,0.6834762715216671 ,0.2927123731619541 ,0.28722488745816277 ,0.228462679983448 ,
0.42890996011577626 ,0.1710566243081823 ,0.3768328859710875 ,-0.5451299593283606 ,0.16944811769361964 ,0.6895955264592203 ,0.8374812180301282 ,0.04553131703706441 ,0.8342349564817015 ,0.5588984918354792 ,-0.8457241480807125 ,
-0.8280590818524985 ,-0.7939749345351728 ,-0.9948140734403565 ,-0.8627290245538857 ,0.7312420129665461 ,0.20789660576685864 ,-0.9099920059977258 ,-0.9326510697372025 ,-0.8510496148316474 ,-0.8517443818254863 ,-0.2308292879048705 ,
0.8575452372387409 ,0.6914575089495774 ,-0.5536929835221902 ,-0.4373146614250515 ,0.21651807542053528 ,0.1872888899357808 ,-0.7983413393850494 ,-0.9295346816240372 ,0.14226125305162365 ,0.06783645355104034 ,-0.44241597396509086 ,
0.7290323098942832 ,0.3969603807917293 ,-0.3008511760280363 ,0.5000865800393743 ,0.31244775102294386 ,-0.06058719102647824 ,0.28451641203288025 ,1.094891341799703 ,-0.598730255366328 ,-0.7367712490842157 ,-0.1865132188433045 ,
0.5968248480007543 ,0.3803829046559246 ,-0.03986433650217691 ,-0.6406054368120475 ,0.5054197356449981 ,0.17967513745948793 ,-0.7173361715075973 ,-0.2976404881462993 ,0.002051984666713788 ,-0.2856151536335728 ,-0.9018748264340453 ,
0.5806732560301442 ,0.2642229122377584 ,0.6085660414174102 ,-0.22447250868336613 ,-0.5051216043781789 ,-0.1295805861467277 ,0.26750736563449945 ,-0.9703688112343524 ,0.7671454161610409 ,0.6110160487935969 ,0.8352150614457601 ,
-0.7206492548528443 ,0.7291944663208942 ,0.41099438135012734 ,0.2085449624693399 ,0.6498689239350985 ,-0.22888613692051626 ,-0.8280392681428681 ,-0.6102965814906951 ,-0.12098414956685037 ,0.23128803359791383 ,0.4434430131241735 ,
-0.3193206436799473 ,-0.38896929365792265 ,-0.8380659979781312 ,0.633460188489493 ,0.04525181986346601 ,-0.01710051463359584 ,-0.3623405324584579 ,-0.5666112914180126 ,-0.6025053457622925 ,0.031002339378486718 ,-0.551878595522739 ,
-0.5822330392061329 ,0.03607824673740588 ,-0.6447444139747702 ,0.4976196940080958 ,-0.7750456087093915 ,0.262870279686675 ,-1.0499020782892976 ,-0.19970905011135615 ,-0.7322688057149642 ,0.46312166764918833 ,0.0586207828540551 ,
-1.1589245825576986 ,-1.031283287341623 ,-0.4881000619908628 ,1.0029019328255826 ,-0.33662341269862645 ,-0.14378957368408207 ,-0.3373038692392212 ,0.5817161435499671 ,-0.07310862736313264 ,-0.7049305416330485 ,0.4423049069098067 ,
0.20149123831573346 ,0.6404556256680027 ,0.5496048045408506 ,0.7570845672213458 ,-0.05932988821257874 ,0.29559533509145947 ,-0.3686797551801013 ,-0.2533938482369345 ,-0.23784580031148114 ,0.6008186680492171 ,0.2930265007511207 ,
-0.36812318526759774 ,0.2581490477232887 ,0.4331372734238995 ,-0.6032667939018694 ,0.7594593242669925 ,-0.6080717225813015 ,-0.9064445421224724 ,0.9835969968309055 ,-0.21756873885200517 ,-0.44554909612079296 ,0.3068984416321118 ,
0.13643142476092426 ,0.5194085436463755 ,-0.45526124286303526 ,0.009216527334295607 ,0.012134485988632482 ,-0.15327801368372285 ,-0.41319189098313114 ,-0.2162673953365376 ,-0.16508760162786051 ,-0.9756449046654461 ,-0.21199097895044067 ,
-0.285461413112148 ,-0.3135514658323883 ,-0.40038002798813604 ,-0.7189116687451822 ,-0.8122367181929067 ,-0.6000369625929447 ,0.3803338951913774 ,0.8982259369197538 ,0.41105420433804674 ,0.24303651002134669 ,-0.7647042622573167 ,
-0.8507240754599841 ,0.45427282261937896 ,0.8955613281867334 ,-0.7017160822930079 ,-0.8453953735998095 ,-0.20297985358349913 ,0.33163084760241046 ,0.5061438012903812 ,-0.23581999681992055 ,0.022923145631740804 ,0.1411368908620213 ,
-0.2820915090122177 ,0.8518607088971569 ,0.763286311695293 ,-0.650457910729161 ,0.8039293901810766 ,-0.30685753524051346 ,0.9536334237284882 ,1.0042775382825575 ,0.7645093278123869 ,-0.16469147144245022 ,-0.45376541549829097 ,
-0.22970497646851815 ,0.22919740756930282 ,-0.044950818690395855 ,-0.10811074301933524 ,-0.5947587386931249 ,0.7258886373427267 ,0.8654875622263989 ,-0.9345388160426832 ,0.17596356950186925 ,-0.3208004258070699 ,-0.5621602321165766 ,
0.4343867351450052 ,-0.8650675458837399 ,0.5049559590756356 ,0.47249184002193967 ,-0.4145220596383683 ,0.7997261356187483 ,-0.7968275576317034 ,-0.03843575285129422 ,0.03507140997343578 ,0.3047059667545809 ,0.6996221791093307 ,
-0.7400744288964364 ,-0.0276805996867244 ,-0.938108063382284 ,-0.49266069630675385 ,-0.9149338421318446 ,0.12609476620175528 ,-0.23315420660272665 ,-0.8979777036812489 ,0.716464742276096 ,0.04850760578270311 ,-0.7430772787431675 ,
0.2155099460166483 ,-0.9195511508534953 ,-0.6890161949097263 ,-0.2566852995261306 ,-0.49589300764474614 ,0.5849551877582884 ,-0.8978471209052841 ,-1.0409950764593043 ,0.846246019625085 ,0.6832075723132935 ,-0.7657856557983317 ,
-0.9426737656079567 ,0.3676395595332186 ,0.3525350519268912 ,0.41247867695738616 ,-0.8572245320222679 ,0.3557912732633534 ,0.5726064791141832 ,0.030216429655008842 ,-0.5282543317539832 ,-0.6714144152446366 ,-0.9036139889644335 ,
-0.4261591811466102 ,-0.9002592251881866 ,0.13060317807111713 ,-0.5623708338848752 ,0.005684166581621006 ,-0.19704625628286093 ,0.8040833626036907 ,-0.7242349404435214 ,-0.1504566818247997 ,0.6345860689487841 ,0.8325925307871423 ,
0.6897034405505761 ,-0.8974220638901014 ,0.39358511064312673 ,-0.4556871937204096 ,0.32999606666518067 ,0.042550262520844616 ,0.4181424982558616 ,-0.2921077391546977 ,0.4862372646007194 ,0.05289037357330077 ,-0.6408272669027185 ,
0.4250999420807243 ,-0.6919066371254752 ,0.6423775830104504 ,0.939953458491126 ,-0.03206444413564924 ,0.6442260064391386 ,0.18046297401920952 ,-0.4239355832618273 ,0.4080597428093092 ,-1.238028869500409 ,-0.26289222571953225 ,
-0.5518085207253448 ,0.236422807446563 ,0.4679375206930371 ,1.0251872406251559 ,-0.18938167969893663 ,-0.42371480974722886 ,0.199274611780121 ,-0.2534586342620369 ,-0.4744480023136059 ,0.5806803020786137 ,0.8313368354142923 ,
0.7094200777940975 ,0.41549074557616006 ,1.1509306327276931 ,0.6608267131158055 ,1.0641152799604028 ,-0.42529589852049726 ,0.12931426469362234 ,0.47887491098848617 ,-0.1825268156974182 ,-0.41072264816709625 ,0.4931510999136587 ,
0.5203655560313574 ,-0.2163396474779152 ,-0.8199967207809371 ,0.900363000473976 ,-0.5950416785340978 ,0.2291334991139551 ,-0.3723338468664017 ,-0.1781562200662482 ,0.5384263085072145 ,0.692768886889425 ,-0.8360168684946324 ,
-0.6593379727981037 ,-0.04420190262104215 ,-0.7903418188892231 ,-1.0975571707649447 ,-0.31115326973934854 ,-0.917057295428604 ,-0.3787763703171053 ,-0.6744298082208233 ,-0.44974866306907013 ,0.031078131583310492 ,-0.9545310165063102 ,
-0.2890693107213267 ,-0.7955342783252777 ,-0.30256177583368404 ,0.1397719503644635 ,-0.6682273228135697 ,0.5941290059426646 ,-0.8588589935318858 ,0.6393415284695783 ,-0.011420171367387238 ,-0.804804320320034 ,-0.292076799352462 ,
-0.29495365799674755 ,-1.1936709107326475 ,0.9825530209383873 ,0.6749862959744877 ,0.656473571625022 ,-0.7164666447132174 ,0.7430397629487588 ,-0.5109457675554617 ,-0.9616110783219143 ,0.10332756624933705 ,-0.0929530404581633 ,
-0.8757235527191876 ,-0.7049432518336886 ,0.5141894844567474 ,0.5431728418439894 ,-0.683780965748046 ,0.8108736488967935 ,0.017273118350322508 ,0.8166673008969747 ,-0.9471789655217294 ,-0.9685315543863089 ,-0.46032372831307966 ,
0.38433026583482066 ,0.042515906049008234 ,-0.9213198470565089 ,0.18217670254066778 ,0.46730823394668286 ,-0.38236539631632005 ,0.4237349486398823 ,-0.11080712308920736 ,-0.243129296087336 ,-0.9249609249702851 ,0.34406671677851614 ,
-0.0467392153255232 ,-0.522174978631561 ,0.16954218852235606 ,0.6412142086126599 ,0.4588366332424456 ,-0.15131160301310073 ,0.6226347237227599 ,0.8874428769371716 ,0.24348939725691962 ,0.11991418299574882 ,-1.0974487062536724 ,
0.17035038927003104 ,1.0081860350570317 ,1.082683443635255 ,-0.6312942503242329 ,0.31565003824496757 ,-1.180765470399676 ,0.6693138001991703 ,0.1338764288157962 ,-0.979652499383675 ,0.23458694414309322 ,0.38601705646731843 ,
-0.5393565164395794 ,-0.10085838925980026 ,0.305219993528967 ,-1.2948419471881867 ,0.5538276105102129 ,-0.8080655780569939 ,0.35719179587527744 ,0.12149659942076693 ,-0.8376118932635456 ,0.12978343567538403 ,0.5670213745976207 ,
-0.29647776142616505 ,0.5897308595515504 ,-0.11389336731266325 ,-0.8707255444403067 ,0.9255110004791663 ,-0.10393061553725268 ,-0.1491169586011504 ,-0.4146190972812008 ,-0.17100284695961382 ,-0.6362738914767366 ,-0.651251104613533 ,
0.18465277954939546 ,0.4575298204334687 ,-0.2862856657591584 ,0.6322095608355852 ,-0.14323371351784134 ,0.24521519739788658 ,-0.585844729895449 ,0.9106627695761327 ,-0.3183493111679869 ,0.7319331655714796 ,0.37353437306557236 ,
0.6172652309496378 ,-0.7167643072058372 ,-0.247463513534225 ,0.6894484146206702 ,-0.615569402634373 ,-0.6616998330626279 ,-0.8285702749567214 ,-0.04070002812124136 ,-0.9733912400206395 ,-0.3330777737815762 ,-0.49333435414158433 ,
0.6303422807527728 ,-0.526691164807488 ,-0.951137989222011 ,-0.02129144174837163 ,-0.154152181402287 ,-0.5858601834894882 ,-0.12199310489695975 ,-0.8409259896841034 ,-0.18310772147450094 ,-0.5435980483021747 ,0.0705629244537669 ,
0.8118410946305692 ,-0.7051900815185306 ,-0.9951798035491956 ,-0.7856660643085448 ,-0.8945802922675887 ,-0.6404765696369508 ,-0.504431179503007 ,0.5213931605060367 ,0.4054106535511917 ,0.8485531619289672 ,-0.7215391170583298 ,
-0.08149391264261534 ,-0.7795725570803212 ,0.8170564005959223 ,-0.060374596484988906 ,-0.5100477069352375 ,0.7045625458913781 ,-0.684131855007523 ,-0.030180252571721612 ,-0.10914913163878429 ,0.8829757174504032 ,0.11690043172812671 ,
-0.5595175601135822 ,-0.9735850907916868 ,0.28239913325965027 ,0.6861917021328419 ,0.6628405916192927 ,-0.13177982505646746 ,0.9483394383127309 ,-0.13314587039487144 ,-0.9629793404924244 ,0.3573631981234441 ,-1.0136589947017893 ,
-0.677458531538394 ,-0.9013122720057626 ,1.1218570581786973 ,0.9254646887557506 ,-1.0508191592969125 ,0.19645988221261454 ,1.1058958020889573 ,0.31573776357080147 ,0.5015393908825818 ,0.15983494776145613 ,-0.6753176005534419 ,
0.9901406261516315 ,0.6708257236233567 ,0.32813029245578246 ,0.6069116000052276 ,-0.5975061621090161 ,-0.6961193573944057 ,0.44088424088274136 ,0.1862629580136446 ,1.1192694587735668 ,-0.4696134993757404 ,0.1977101215780122 ,
-0.3354347166679896 ,0.6277492208671785 ,0.5503654098863198 ,-0.7252455110217622 ,0.902311016595264 ,0.08051475086079225 ,-0.5903201108875799 ,0.657197996913747 ,-0.5924927999735953 ,0.3465633907735262 ,-0.6902714171242175 ,
0.07391577345547132 ,-0.23635308109858322 ,-0.46779134655440335 ,0.2876848412985764 ,0.5328495366377662 ,0.09888848857381945 ,0.5305900175160375 ,0.9309340231136412 ,0.4498649395669657 ,-0.9214812932516514 ,0.0613089171093974 ,
-0.35858283760417925 ,0.35332107818830494 ,0.7927455682682788 ,0.8895608385027687 ,-0.6152472187999561 ,-0.4310563317349928 ,0.6586545944816328 ,-0.17440220704906872 ,-0.9400352740615412 ,0.8986640489421047 ,-0.4405221864115332 ,
0.8211641144067247 ,-0.6105331000672655 ,-0.5345346400373402 ,0.4288878691242516 ,0.8573026804797278 ,0.41631553263164467 ,0.5317275777154278 ,0.4925080677169497 ,-0.581938554468206 ,0.9712587434507769 ,0.9870345661295531 ,
0.6966985091449134 ,-0.021568563816283762 ,-0.41685049033062993 ,-0.1892610743227031 ,0.28551510451504014 ,0.23727190057686612 ,-0.5169967980010219 ,-0.23219991766615608 ,-0.404211326488372 ,0.4587063633953503 ,-0.6516891567754334 ,
0.589531429961795 ,-0.4906860506829972 ,-0.11948288926970144 ,0.6601254657136325 ,0.8092556074488557 ,0.22720899425270155 ,-0.1087302424583471 ,0.624733292119923 ,0.16104305833154936 ,-0.40436001581043096 ,0.8028027179727397 ,
-0.18068299598671522 ,0.7305490172630716 ,0.6870793901545573 ,0.390151519999963 ,-0.20721807669464534 ,-0.1844507055627947 ,-0.20793966542865938 ,0.21329693562082488 ,0.02171865468676268 ,0.4791686683803559 ,-0.829018196233523 ,
0.715476885379329 ,-0.32080160675184466 ,-0.4783493156207854 ,1.0250740511556014 ,0.4158750314039402 ,-0.7799452238019957 ,0.8996857843175451 ,0.40049496819728947 ,-0.013630172815427305 ,0.22064969586555702 ,0.6226324667842321 ,
0.3887286866553079 ,-0.3726265925108412 ,-0.94550755857959 ,-0.21505479798010935 ,0.4370572442640232 ,0.5889817697028742 ,-0.5561487320968317 ,-0.6631690370881382 ,-0.4255694573701433 ,-0.7793335527019928 ,-0.8820378999180334 ,
-0.16241831249969452 ,-0.8091453116778851 ,-0.32832328949807627 ,-0.22265602335456758 ,0.7645175135690506 ,-0.22814300460374473 ,0.754272259920749 ,-0.3767909312591562 ,0.2258956244938966 ,-0.4346636217021938 ,0.5272834963838462 ,
0.6713116355371948 ,0.10339387501378774 ,0.15818570813200394 ,0.5319975999799305 ,-0.6464887106096665 ,-0.2999028802195973 ,-0.5694880460770754 ,0.6862420479145 ,-1.0396017593814009 ,0.32930286675293635 ,-0.7268885807934048 ,
-0.10056501947321542 ,-0.7100597160706107 ,0.9643405068854595 ,-0.4328450665284798 ,-0.16345122104940024 ,1.2330197516285233 ,0.05841769139014787 ,-0.7557217298598927 ,-0.5034903736181306 ,0.7291064660637557 ,0.5612096068394106 ,
-0.32651495798272756 ,0.5936391047078984 ,-0.9192544086853242 ,-0.715737513924242 ,-0.8557469799654246 ,0.12136793764474407 ,0.49856580704982445 ,0.6570591796883625 ,0.13124629225196327 ,-0.16525411596646108 ,0.621017751652201 ,
0.6644998734477736 ,0.9528383842268889 ,-0.9871896722074782 ,0.5008522024242736 ,0.3504001395279893 ,0.4519998002214674 ,-0.4681559206571971 ,0.8942556669595791 ,-0.8532911415517016 ,0.6515287030758196 ,-0.6118827090010968 ,
1.0399075517577816 ,0.5590006135796144 ,-0.3688581855680075 ,-0.009002845490281214 ,-0.11402023848326509 ,-0.4679044037559515 ,-0.390202588726006 ,0.6171624198528289 ,-1.0225140338662553 ,-0.7522387037658012 ,0.6235240267365556 ,
0.7823030672678538 ,-0.7930218342947856 ,0.34334450008140466 ,0.9793459654548874 ,0.5109190472136809 ,0.11582019786181355 ,-0.9139473387758628 ,-0.9899615218552291 ,-0.9119890750817587 ,-0.642944230595447 ,-0.951500059018709 ,
-0.49296851483409293 ,-0.8318402844995441 ,0.6708238473728069 ,-1.0559116055557032 ,-0.4939727364219782 ,-0.40143447417266204 ,0.8832502789151745 ,-0.008527320671510796 ,0.8463518956753584 ,-0.43922876501479946 ,-0.510024528717705 ,
-0.06272114993141416 ,-0.24281278790525243 ,0.2697095579079175 ,-0.7912237648197346 ,-0.3134740049918666 ,0.40167474316350654 ,0.9281779839478486 ,0.7799627459829406 ,-0.368933548688509 ,0.4719289920505315 ,-0.01863988602144708 ,
0.1937557525514284 ,-0.7427064647275144 ,1.1096348638823823 ,-1.055511913242265 ,-1.1106166344621353 ,0.3344464766411095 ,0.9961942489637696 ,-0.6937747883147507 ,0.6827198556060179 ,-0.22370278202977795 ,0.8868046371569771 ,
-0.0178191234859838 ,0.9332411271220212 ,0.23709750894215698 ,0.47381438298948547 ,-0.004191410651536852 ,-0.4555992937070363 ,0.9724762444268628 ,-0.5109282990106576 ,1.1317646938497363 ,-0.3528141393083275 ,0.8433851733665207 ,
1.028475297909666 ,-0.48213928006013124 ,0.6251581449588568 ,-0.19359849250677408 ,-0.16106021522732855 ,-0.5468659438629108 ,0.29580509099503977 ,-0.21315550156471394 ,-1.0127544188671405 ,0.41146866971450097 ,-0.6745301580420119 ,
0.7369033133395517 ,-0.046782775460387394 ,-0.6831875519339761 ,0.6823255717676464 ,-0.5714950398263519 ,0.5841375836702642 ,-0.6562773628832184 ,-0.8118382082419788 ,-0.8452701900422525 ,0.39996650893436414 ,0.5445646708046349 ,
-0.0615863151520728 ,-0.32733185550362015 ,0.2345504379847532 ,-1.1656592426899337 ,-0.24098893657152465 ,0.872558553472053 ,0.7729194689337697 ,0.30169713050734787 ,-0.1023095479089466 ,-0.9006236277162505 ,0.5398536422377848 ,
-0.5919277840671615 ,0.31438381934985 ,0.36320115456329644 ,0.0882949831043913 ,0.2974624634434026 ,0.4391331875729317 ,0.18477583176337947 ,0.11652339821831248 ,-0.24507675851472088 ,-0.7722252545001956 ,0.3216722524119753 ,
0.24675434454923284 ,-0.5488737985720233 ,-0.5633720255599394 ,-0.4187184493829845 ,0.5855116711969818 ,-0.10605600623703079 ,-0.9449834271295062 ,1.0211083405269574 ,-0.7697357299494835 ,-1.1924377910364112 ,-0.08843534830977366 ,
0.4955684878166621 ,0.9619323509864982 ,0.7346832286357208 ,1.0191853940695164 ,-0.6434839643529205 ,0.26595808013925804 ,0.2862085997760046 ,-0.12170392661433065 ,0.8516241328720211 ,-0.03425410383100663 ,0.7858399216884134 ,
-0.7564162321750164 ,0.24538661749590834 ,-0.3396124787755089 ,-0.32913563592150513 ,-0.4899983276123706 ,-0.27868029629111435 ,0.1503590007543347 ,-0.9829738793463947 ,-0.5523586447190107 ,-0.39528751949870644 ,-0.9586166205137134 ,
1.0891064252407845 ,-0.16191237818055546 ,-0.013337498216128837 ,0.16003705559842824 ,-0.8805575852565678 ,-0.7785192265349413 ,0.1881143235750786 ,-0.8703122206836829 ,0.5089476382740302 ,0.6107622218915092 ,0.6419750459488975 ,
-0.5396881089464013 ,-0.602286732904632 ,-0.4990263457506466 ,-0.7978065190666159 ,0.29480121853216124 ,-0.1586146541435532 ,0.14299834858727653 ,0.7991274819088271 ,0.09929248157151024 ,-0.23535488628477677 ,0.03187911835174122 ,
-0.538192591792092 ,0.3494002670245731 ,0.991465387336168 ,-0.5714448970437681 ,-0.4437485862954033 ,1.1030723590381362 ,0.526581962366081 ,-0.8528048340566298 ,-0.8257961108852627 ,0.7080303768198369 ,-1.0232152729610617 ,
0.29145167060971094 ,-0.34605064124927826 ,-0.9120979909338962 ,1.0152824099676427 ,-0.7334411321953207 ,0.18593602959092376 ,-0.6369890397500646 ,0.5921436132161814 ,0.25282378155161284 ,0.13145836569324781 ,0.7925994084953526 ,
0.5423718259205043 ,-0.6463935608974589 ,0.2735136064629393 ,-0.3625162438930752 ,-0.7791391690950353 ,-0.08928974312054769 ,-0.3249025078135893 ,0.08762760697798513 ,-0.5774627430688034 ,-0.817393428699439 ,-0.22620091090358002 ,
0.3608298927369365 ,-0.14924288160689594 ,-0.575669913647009 ,0.7662105785707565 ,0.7094088087367303 ,-0.013932082338767523 ,0.049576474861816724 ,0.35065048868848664 ,-0.5759197761553004 ,0.7802781098950671 ,0.2366444500361694 ,
0.4390359072175295 ,0.3162730234052927 ,0.8269249585747487 ,0.19890466689514025 ,0.41128188474995797 ,-0.018099641193099772 ,0.48193594815961727 ,0.3838380073858412 ,0.8929594252907047 ,-0.47112691772780285 ,-0.8700973437993729 ,
0.647924975605427 ,0.38593093597933875 ,-0.24409442664941267 ,-0.5498723499699506 ,0.07127919991018739 ,-0.44356980879637087 ,-0.17304351961473619 ,-0.4270371155346908 ,-0.9314867283301888 ,0.8517043509470376 ,0.8346529093580012 ,
-0.4380958181064529 ,0.015332757000513487 ,-0.3946053509722531 ,-0.18199293154753624 ,0.4073494233411867 ,0.8771479447478199 ,-0.23972732633035798 ,0.8036701917887138 ,0.8465679933694541 ,0.18567806765127687 ,0.5135535560678025 ,
1.0302222825745555 ,0.11102290161936124 ,-0.014325402435573356 ,-0.7848450302554801 ,-0.8711693160774513 ,-0.7064592311587264 ,0.38715645988994957 ,-0.6909720395859913 ,-0.1984234249216118 ,-0.4270541925240313 ,0.40476000863948064 ,
0.31610358856065723 ,-0.015111808865597348 ,-0.13787954095784954 ,0.13073849234093726 ,0.6907897828831933 ,0.4193156401374772 ,-0.382098223143258 ,0.8403117060613526 ,-0.6998218112388856 ,0.39311617998338183 ,-0.6141338530841628 ,
0.7663898419621116 ,-0.09535065315109843 ,0.7302359080395481 ,-0.579156999952644 ,-0.3950027503682665 ,-0.6974580887032497 ,0.8512090646240812 ,-0.7379268543226023 ,0.06165472703339854 ,0.524685306353167 ,0.043710396799336845 ,
-0.08031921024245553 ,-0.7285112233772741 ,0.5898345921274065 ,-0.18105523127090078 ,0.3731045645630813 ,-0.5420193863885071 ,-0.6453081662895522 ,-0.8540643951907255 ,-0.8622160586765331 ,1.064016166979405 ,0.522521030133733 ,
-0.666021855534366 ,0.6436464440547252 ,-0.6089592741039835 ,0.4469459184663864 ,-0.949950617613643 ,-0.858539497031493 ,-0.4837419915122632 ,0.49350328315237413 ,0.7131137078676995 ,0.6739117591524217 ,0.11864491968999652 ,
-1.048251711163646 ,-0.9119994738503325 ,-0.16608621569468593 ,0.8236282307986249 ,-0.6195154001501891 ,-0.0791820228318117 ,-0.644900316932423 ,0.6847962040019417 ,0.08796097595972227 ,-0.7536537919558493 ,-0.23555457545767353 ,
0.41379612702455026 ,-0.9817657160136342 ,0.5799662858885041 ,-0.5350193960628588 ,0.3901886253711029 ,-0.5933152081297886 ,0.26550647602883276 ,0.007165891370573399 ,0.0978742465711098 ,-0.019478981252554886 ,0.37664897779133466 ,
-0.6601727457835783 ,0.9791308805877577 ,0.0029563192048259745 ,0.7038218382142564 ,0.869645280692693 ,0.013799939829507158 ,-0.9316409075397931 ,0.0736133774344492 ,-0.5414671805244663 ,0.8729172734498862 ,-0.9665470801785456 ,
-0.27699852011071296 ,0.8094469826425444 ,-0.761769460857766 ,-0.4244677674439856 ,-0.06639206669192693 ,0.7173931914738687 ,-0.06805148350324866 ,-0.14826115887842883 ,0.6710846297245181 ,0.3822736740469871 ,0.36023599963487996 ,
-0.9537070774655331 ,-0.27449069001771587 ,0.639795375190992 ,-0.6085344963797086 ,0.5014993102614139 ,0.5609166614057941 ,0.09526401476894393 ,-0.9597969995321071 ,-0.9370055601520668 ,-0.21630475294608867 ,0.6115240189559981 ,
0.8806532854843593 ,0.6343307744552428 ,0.13266574531783687 ,-1.1518093343959033 ,0.8225477203471298 ,0.7822425040029836 ,-0.604679119632003 ,-0.7727512162433509 ,-0.49265009277171273 ,0.6640392559707222 ,-0.007890042345392645 ,
0.5468805067424412 ,-0.8687102170690468 ,1.0248070432273935 ,-0.21150501277962994 ,-0.12711044393919815 ,-0.6043249189866821 ,-0.5342029910184862 ,-0.02795162300586384 ,-0.6285566388750065 ,-0.5692431144325936 ,0.42425936122739305 ,
-0.6087414933622818 ,0.08789119512088973 ,1.0014710736544588 ,0.35405381973117755 ,-0.3216436869197019 ,0.5561534852719004 ,0.5970455702554676 ,-1.1038567490381306 ,-0.9449513069012034 ,-0.9498822647129164 ,0.4022750039247422 ,
-0.41091981653174947 ,0.7422005176849683 ,-0.13867464276121433 ,0.5330918674153317 ,0.1849267629382186 ,0.021494603753773878 ,-0.11851175838673958 ,0.8548654230900682 ,0.5035346573663764 ,0.7074765662375379 ,0.44419496015183674 ,
0.6208717647662424 ,-0.12709809084446527 ,-0.6817642007545538 ,0.7336649629605243 ,0.9195784656602912 ,-0.2996775698784008 ,-0.5669356747926257 ,0.7726755899089722 ,0.18687043322476024 ,0.6072865585644374 ,-0.07704147905567979 ,
-0.043578796081512695 ,1.014963677383827 ,-0.7898962517292382 ,-0.2758606206551774 ,0.21486426350103127 ,0.7951961803846799 ,-0.9315891438861529 ,-0.8422453225497584 ,-0.6962323366388542 ,-0.7290488113800435 ,0.14840259373033077 ,
0.8484018852113235 ,-0.5641870697451027 ,0.29237456387275323 ,0.671680767482303 ,-0.40645139373882816 ,0.7081110120405608 ,0.9372060482625532 ,-0.7566881558561722 ,0.5044640411900773 ,-0.11183800499129364 ,1.0283115297200456 ,
0.47971861109410263 ,-0.0396026724276973 ,-0.6614097384413602 ,0.5063261636487436 ,0.5952982943800889 ,0.5067202526757177 ,-0.5537614573061811 ,-0.1554780034287212 ,-0.5624422879288872 ,0.8113948397052884 ,-0.2781059625753957 ,
-0.9161947311423155 ,0.027401795052165286 ,-0.1412408630624662 ,0.24175103473124634 ,0.8146434499899559 ,0.450205174489046 ,-0.4433843946738647 ,-0.44659621259145865 ,0.4529398307056314 ,0.4387829683241922 ,0.835767813434941 ,
0.19636624323759913 ,-0.5041113057373471 ,-0.7251217746247459 ,-0.8990077109325236 ,-0.3205384280151879 ,0.9246740226414926 ,-0.5613840692047803 ,-0.45678333562668355 ,0.10305373449765652 ,0.7302446514298901 ,0.22131439068556644 ,
-0.07323119908835021 ,0.9408410688919522 ,-1.1900310596560917 ,0.2589356722466049 ,-0.3102787579917865 ,0.6097536052380601 ,-0.262948198398124 ,-0.06861007513148246 ,0.2448033398423502 ,-0.8367766187894533 ,-0.8984145010197554 ,
-1.1977396317717144 ,0.3275386794974302 ,-0.9571090261456359 ,-0.9689633742756956 ,-0.8661140960955892 ,-0.03597251331632015 ,0.5285239709824646 ,0.6514462789433617 ,0.8395538283419576 ,-1.105431011974827 ,-1.0223483004286278 ,
-0.47163632564839114 ,-0.2406799281361156 ,-0.2980396939146498 ,-0.49235850367045103 ,0.7408686989710096 ,0.7811707720365394 ,0.06891112711017235 ,-0.5714238718681585 ,-0.16885069145360593 ,0.7058840761881585 ,-0.05399022007000291 ,
0.8942482792516497 ,0.1737178170294237 ,0.8528622588821941 ,-0.3436368567997566 ,0.2534999644958648 ,-0.8867768208252611 ,0.08432487775266369 ,-0.5339511531276478 ,0.47110319811381823 ,-0.8667958500048156 ,-0.7641230010514406 ,
0.617401322181912 ,-0.9178541605165766 ,-0.11021459759887367 ,0.5008258021308016 ,-0.23650050244488408 ,0.5931526142374328 ,-0.35135851031703114 ,0.10274366099745702 ,0.058566669933609095 ,-0.33486738826080525 ,-0.5630686711894901 ,
0.11558901445765714 ,-0.9870685058843871 ,-0.5621308830365 ,0.6328540711355755 ,-0.3990094405569435 ,-0.08844390568055074 ,-1.0201932878906903 ,-0.6174254663232062 ,0.4700342915382871 ,-0.31304131304072896 ,-0.2343135202122443 ,
-0.5316983320009623 ,0.6392293424724552 ,0.24265531408894964 ,-0.13292749490363648 ,0.7915688996573721 ,-0.3416968546633196 ,-0.7590125580356165 ,0.7541581937924615 ,-0.4737308682224068 ,0.7200827972756463 ,0.5074412159632806 ,
0.5169395007809263 ,-0.6171543427195584 ,-0.0791795809743018 ,0.41967233601928533 ,0.5387346758198224 ,1.0147945332861774 ,0.017176789937604832 ,0.07371211535602183 ,0.3237534549964721 ,-0.8223872581805503 ,-0.3200917011115769 ,
-0.03966022482387853 ,0.7745161998392042 ,-0.8327174066679406 ,-0.5885924998273705 ,-0.5471267455360433 ,0.18498092738717792 ,0.06110082889173146 ,0.06225019190180113 ,0.3001168507174066 ,0.025174172598774053 ,0.17861519888903282 ,
-0.3562275342448786 ,0.25502679431757624 ,-0.5844256899174639 ,0.5826078771988616 ,-0.5905084411177772 ,1.2297148698953215 ,-0.9479048855029921 ,1.03220092951356 ,0.4932789811654963 ,0.2784694256190471 ,1.1289139065633458 ,
-0.8109144348865176 ,0.2666459485311478 ,0.16076096872351053 ,0.28469735509172317 ,-0.6484868905263852 ,-0.6715453510322449 ,0.7011608952405188 ,-0.8259644748973759 ,-0.7325074091990775 ,1.0776052557783318 ,0.7692568180715763 ,
0.18446185096116222 ,-0.5939634884946826 ,0.6923112779013472 ,-0.14266025192973783 ,0.20058199815195502 ,0.6328967402144228 ,-0.7727587987051476 ,0.7481958586231509 ,0.013525832508366972 ,-0.28262479564640863 ,-0.9024442695867063 ,
0.0643014910483974 ,-0.14969928721148504 ,-0.38502014081207514 ,-1.115606110382795 ,-0.25700338242431353 ,-0.17998288365199616 ,-0.9029168791406673 ,0.5938874281213077 ,-0.07976322658691534 ,-0.715560656376841 ,0.7557903689700803 ,
-0.3277679716833189 ,-0.8461756856812641 ,0.35262142310562977 ,0.2499116547048506 ,-0.046742314232146295 ,-1.027110597696193 ,-0.1995784880397023 ,-0.6399556720792976 ,0.10299124577692571 ,0.1341692925039871 ,0.434029175417002 ,
-0.14053960573645458 ,0.21657634162698397 ,-0.1840880466395892 ,0.751980750534025 ,-0.670135927642521 ,-0.2079395505210841 ,-0.32611529256015087 ,0.5004433455276873 ,-0.7551423176992508 ,-0.7833871653466584 ,0.21057615372627972 ,
0.37663176571549817 ,-0.47766359797522473 ,0.8036926540823729 ,-0.5213722521880964 ,0.8342128956742408 ,-0.6935538112435478 ,-0.6455587383910114 ,-0.35286162944359634 ,-0.8988033033756787 ,0.046133361747901044 ,0.7017386538050299 ,
-0.9980820375476517 ,-0.7413283543316489 ,0.2658129551100027 ,0.46532506393038514 ,0.4421173173176767 ,-0.7277455456023025 ,0.07008348767524086 ,-0.09075428027708032 ,-0.15021949416666008 ,-0.4334813802149648 ,0.14715519569261734 ,
-0.4548676690332274 ,-0.21414056172050566 ,-0.7198724036421156 ,0.05116337146812007 ,0.6800107238449025 ,-0.5028065370695901 ,-0.9551401426029122 ,0.9994970515090207 ,0.90588049755708 ,-0.27146487987252554 ,0.7243694413043376 ,
0.2997095015658296 ,-0.12185654674817778 ,0.17183161409189696 ,-0.5255419198315899 ,-0.3688319902543765 ,-0.3119244970479422 ,-0.8361617191338326 ,-0.5637144688134484 ,-0.637161261850657 ,-0.7561608858729362 ,0.05298279082191 ,
-0.7995731037508953 ,0.010485492479431015 ,-0.6591753550339232 ,-0.1973753729576629 ,0.4365196871070684 ,0.03194882287901979 ,0.49100534629907516 ,0.19440539067974172 ,0.6286829339882214 ,-0.005250385309575098 ,0.21908712193671198 ,
-0.6561114874442675 ,1.1124829465169777 ,1.0143650240344302 ,0.6152127653177198 ,0.3872467523024574 ,-0.12412604438070374 ,0.26267859163430907 ,-0.8639898046171721 ,-0.5475643946748111 ,0.21428422940891 ,-0.2609092351419545 ,
-0.6528096923661445 ,0.11087989963387374 ,0.08325505142539093 ,1.139272375250915 ,-0.4818257630053102 ,-0.8115432338283025 ,0.4366792352038662 ,-0.2406168709856946 ,0.4070105057793457 ,0.8380504352351018 ,0.6390930926949372 ,
-0.005293238681044685 ,0.49895246032138985 ,-0.47424342635836214 ,-0.544645104426661 ,0.21978283975452528 ,0.4834030952927898 ,0.24428870652908125 ,-0.6623351584609974 ,0.4401602730525695 ,0.590746069913339 ,0.045834689292272884 ,
-0.913816335030031 ,-1.148357672261952 ,0.18600198221706585 ,-0.12509126789212982 ,0.4223169554405511 ,-0.6594623763642888 ,0.9047027655354783 ,-0.957532526713943 ,-0.19375483813426447 ,0.9867898365689647 ,-0.5355088582860916 ,
-0.6697397483466053 ,-0.5897931578195177 ,0.41777881437128245 ,-1.0070017251057262 ,0.37029325649337685 ,0.020663246059810833 ,-0.03301771999353997 ,-0.7223402750594403 ,-0.9768247704248243 ,-0.6537317749687694 ,-0.881131857648192 ,
0.7644235701071894 ,0.8932868927926424 ,0.8848004007514316 ,0.8065269163812266 ,-0.32525806274616476 ,0.6037515618154302 ,0.028472988946829265 ,0.4721206569403643 ,-0.4866221824461759 ,-0.7457994944674663 ,0.5826628417500913 ,
0.0007578356612794601 ,0.705783580116727 ,0.11713786645090006 ,-0.699738912985044 ,-0.4427781658032139 ,-0.4434837503440944 ,0.08719109441216469 ,-0.4793405286334224 ,-0.5167120220501198 ,-0.5120950064834883 ,0.6982861364885007 ,
0.5010788580770467 ,0.23441879675167546 ,0.2746371683740739 ,-0.6474488338517743 ,-0.7968938493281639 ,-0.6060046614254151 ,0.8471948265993411 ,1.1362682537397317 ,-0.27268976812068824 ,-0.7375892006166207 ,-0.601747911823628 ,
0.50265298644177 ,1.0153341225419044 ,-0.23352986659791733 ,-0.718035885133411 ,0.8212494822184798 ,0.690379446231823 ,-0.5186980174530056 ,0.41896119043444996 ,-0.9730582115218812 ,0.39092488393123753 ,0.4666209252383172 ,
0.8018369466039758 ,-0.7010120198470737 ,-0.5367110252766738 ,-0.40174146906377106 ,-0.5785455867628841 ,-0.580165297751593 ,0.40987486231724707 ,0.52477439769689 ,0.0430819954861434 ,-0.37191316684631137 ,0.4281865937588054 ,
-0.3083000281448966 ,0.9269087279141333 ,0.9666260484912228 ,-0.5586813042776713 ,-0.3433405374353611 ,-0.8216222047000689 ,0.910252168632373 ,0.789532749237921 ,-0.7949498213910452 ,0.5837338503334679 ,-0.9979259003394161 ,
0.6971114328466802 ,-0.2692521706711061 ,-1.0892452209629513 ,-0.0028143855384581556 ,-0.6816146702054797 ,0.7495494171811461 ,-0.7887686409651631 ,0.15998341760976914 ,-0.24246843413852648 ,0.9645362825638808 ,-0.9177906920593252 ,
-0.4781138034261396 ,0.6522885002907207 ,-0.34783599337594795 ,-0.37125179134016983 ,0.4982397578105427 ,0.8970239503546471 ,-0.25578313134596664 ,0.6654380284546938 ,0.9329289242235129 ,-0.19432152679938458 ,-0.23241193939808383 ,
0.41687457856259924 ,0.03555009328101211 ,0.043930123783900786 ,0.25197414342826857 ,0.33197071789460114 ,0.6609614470075632 ,0.8853140989491254 ,0.8245760794979362 ,1.0452194947620652 ,0.365202120400524 ,-0.07193804396994441 ,
0.415251710653512 ,-0.8088387984656271 ,-0.39338592814161377 ,-0.2249493883850848 ,-0.8545068379330989 ,0.6828457715690586 ,1.0173285415108162 ,0.16452859998595137 ,0.16565907587493642 ,0.29415565892424245 ,-0.4827503580088268 ,
-1.0464518813690131 ,0.4863915601604497 ,-0.13602633837248446 ,-0.4715266941966269 ,0.6451754626028788 ,-0.4339746520298922 ,0.25858663115259806 ,-0.6380707675952687 ,-0.027361690831981644 ,0.5218632842632892 ,-0.17476906652698992 ,
0.9120350151734203 ,-0.14228253151918255 ,-0.5650312563410578 ,0.012890581152760237 ,0.4700996580704682 ,-0.04342359314374128 ,0.16638083511869028 ,-0.7422065062601886 ,-0.4014380585131979 ,0.6397949154623661 ,-0.15405768793215077 ,
Layer 1
-0.5929866275466327 ,-0.7735859860681975 ,-0.2308798084781785 ,-0.8194724321416911 ,-0.4296355298495396 ,-0.19175185886840374 ,-0.6370913697420143 ,-0.10055093325377969 ,-0.3378765601041732 ,0.9535534236072917 ,0.592820353504111 ,0.5361078489071158 ,-0.773269273687324 ,0.6012587642177594 ,-0.37715322370773585 ,0.17107409127021067 ,-0.5659783801657566 ,-0.8649182400218988 ,0.09953898042866169 ,-0.8815587388045589 ,-0.22673718478475807 ,-0.5580434894916159 ,0.5835082810470043 ,-0.1089126357530791 ,1.1872616806855567 ,0.8329380021088897 ,0.6776853526710023 ,0.028914319927358573 ,0.5469829067383526 ,0.09559302787373392 ,-0.47340122136831503 ,0.3409864637664657 ,-0.7381831732431428 ,-0.2929251294667331 ,0.4654196043607166 ,-0.07018410870870248 ,1.1547867477325449 ,0.29924106706511894 ,0.4100223470359473 ,0.21401033494181113 ,-0.7760266303676381 ,-0.9558354762171519 ,0.3138068992718262 ,-0.14196594793558712 ,0.4992497933111284 ,0.8470913203227851 ,-0.0011164539026919384 ,-0.27292134898849835 ,0.243845496700796 ,0.07838918828084604 ,0.09998161905823075 ,-0.8802397595916256 ,-0.2496612598891214 ,-0.3038619596469972 ,0.1768835668027775 ,-0.15509491351206245 ,-0.48714776190166176 ,0.24665491111334698 ,-0.5411364755502408 ,-0.23633804284766358 ,0.610734830394433 ,0.09942099955857864 ,-0.33829965270112927 ,0.7769532551904799 ,0.26118444260089596 ,0.5043917825747292 ,-0.9844236081104706 ,-0.9703620491864225 ,0.41961594435492594 ,-0.49959307895538324 ,-0.7678606426095006 ,-0.5500087297216439 ,0.2673615691164193 ,-0.6700210811878515 ,0.8267689467291608 ,0.9270400534322399 ,-0.6551600552029915 ,-0.450322495932786 ,0.4496185136746537 ,-0.05514819881674356 ,0.2206979147818966 ,-0.05380397977088581 ,0.7118109901044362 ,-0.6612077488725945 ,-0.28947644412654044 ,-0.802661561894512 ,-0.443433061021877 ,-0.28537373260295024 ,-1.0066924108665036 ,-0.15142999275849056 ,-0.9157544000779095 ,-0.2952831032796424 ,-0.420951162277546 ,0.6303658297708057 ,0.4582672667894753 ,-0.9136584406196713 ,0.4465722375379257 ,0.8548356175933877 ,0.9972352599017229 ,-0.8031936005479087 ,-0.8187279565111154 ,-0.7443282409603917 ,-0.2487691548226335 ,-0.10482711265726344 ,-0.8297415609723305 ,0.9201275692957162 ,0.40296603916614565 ,1.0136531469653316 ,-0.4455744985267951 ,-0.1312045717665556 ,0.19973235701242248 ,1.0262035390131423 ,0.1807308008926579 ,0.8658575772330354 ,-0.7368712450572648 ,-1.068713441020948 ,0.8871662108137367 ,-0.13214841763499313 ,-0.16929355200233182 ,-0.49549496183002406 ,0.42876782090925836 ,0.12226230338479649 ,-1.028053230209045 ,0.7450155709391582 ,-0.3622743715288236 ,0.6972675450282818 ,-0.0866220239193461 ,0.5431161348388157 ,-0.23823048157668011 ,0.27059943062120667 ,-0.2616603642555795 ,0.7091272325743918 ,0.4176077750176996 ,0.2750049012621565 ,-0.6291896636150348 ,-0.9785355689650658 ,0.5003404059777592 ,-0.8562761014586638 ,0.4573441476267045 ,-0.9718138957639725 ,0.43524743861739335 ,0.9730462447464919 ,0.6988786410000978 ,-0.14381176837344367 ,0.6853297987967166 ,0.4132766434147922 ,0.4957719510939109 ,0.22170913465695863 ,0.8713456834539715 ,0.8609530990702886 ,0.8140005565292485 ,-0.4147929023839614 ,-0.8930949999758635 ,0.9004327166752074 ,0.5698636168922273 ,0.5427886394867033 ,-0.1683666820795707 ,-0.395998728628751 ,0.4431469168087698 ,-0.8993995795869827 ,-0.49434708207264 ,-0.6749523408952711 ,-0.5416386697841582 ,0.7712326693817034 ,0.3180969567267931 ,-0.757117268459544 ,-0.44805539328125565 ,0.19210823236886732 ,-0.0356613685026104 ,-0.24733465450338388 ,-1.0208653297999817 ,0.7302354799878478 ,0.2929544566033917 ,0.6630413131383446 ,0.07876459270212044 ,0.9020004085053702 ,0.8199339427135263 ,-0.5199856282469569 ,-0.16804855495194326 ,0.14764036162380972 ,0.09152060566257764 ,0.2960109289924043 ,-0.2236360939675689 ,0.01399771164224188 ,-0.1528580324672014 ,-0.1270153826351886 ,-0.4848661063325596 ,0.9876516530034095 ,-0.06329381641053444 ,0.5774937602441167 ,-0.5945299130338324 ,0.6900257384862055 ,-0.8511783485287705 ,0.07036780972822507 ,0.8691229873347961 ,0.05565969331977334 ,0.49831293567623325 ,-0.5691877706702627 ,1.0346691357327007 ,0.8976251837511592 ,
-0.7980872749569249 ,-0.6285642161266841 ,0.4079565484489278 ,-0.804170870291008 ,-1.088660768925367 ,-0.15213082250503743 ,-0.23731528294498905 ,-0.4346612869566799 ,-0.3759629505866204 ,0.1503159858684956 ,-0.13378638574624224 ,0.15408486274423555 ,0.06474703113342732 ,0.010085839785096511 ,-0.9969415012335151 ,0.743533096962249 ,0.6592702544195094 ,0.7102773084512094 ,-0.2910759525678027 ,-0.5083559476539902 ,0.28234885770421936 ,-0.4418508896251104 ,-0.9936923378371614 ,-0.5690563048182785 ,-0.20942384320159013 ,0.8882733211650148 ,0.27353367399826045 ,0.41033433976043804 ,0.16406744306306248 ,-0.19600420926302756 ,0.5413886363324407 ,-0.983198909941412 ,0.18349245987828197 ,0.6729186608818425 ,-1.1210120297812423 ,0.4105080477282962 ,0.12091723965175952 ,0.08024671770331786 ,0.3624496793001459 ,0.49962453429058495 ,0.3521460797900158 ,0.027724092256482966 ,-0.793975596219317 ,0.06910927150088995 ,-0.7785452861678746 ,0.5970477173782152 ,0.8988730596378102 ,-0.9461668193825197 ,-0.8653973639171062 ,-0.833783110859594 ,-0.1037832890597777 ,0.6472948946083281 ,-0.23647461690808685 ,0.698369817606646 ,-0.8551110688870731 ,-0.3171265888808437 ,-0.5214111501015015 ,-0.5601253051032905 ,-0.8051390747925727 ,-0.37433644056541837 ,-0.851795727164213 ,0.8252916809380977 ,0.2544873496581686 ,0.4983892120255837 ,-0.9368592801217386 ,0.6655283958831351 ,-0.6969764306431868 ,-0.8090959148212272 ,-0.5026377821833262 ,0.26936038132033335 ,0.7432041312718839 ,-0.040456032305734614 ,0.5298050557239774 ,0.7567026810972379 ,0.8176758756602638 ,0.2362904320928653 ,-0.4403232343480606 ,-0.30757593445944637 ,0.4525959790451673 ,-0.47059224282797985 ,-0.9616887163085495 ,0.02457533231110168 ,-0.2380295707845052 ,-0.2908574390241951 ,-0.23756602736719823 ,-0.5367762802159044 ,-0.6767265960969181 ,-0.09152306179523931 ,0.48389428142416513 ,0.618842201972337 ,-0.9039025035802652 ,-0.5431327735947665 ,-0.1822712898274345 ,-0.9504327124961063 ,1.0088445526093723 ,0.03242549962498518 ,0.00260680425796829 ,-0.19923062160507415 ,0.980696617900416 ,0.09325124330172352 ,-0.19048357768621652 ,0.8613559375020037 ,0.7811362904569437 ,0.3461196417061692 ,0.8794030541757625 ,0.7350826193757691 ,0.8388484027427836 ,0.8332390989862916 ,0.47082436006913064 ,0.32290836401693346 ,-0.7628099478803625 ,0.8944068464260279 ,-0.9052704879683446 ,-0.5764670327671509 ,-0.49545113293716214 ,0.5456828211337006 ,0.5229613221035317 ,-0.5096320451654195 ,-0.922685736189188 ,-0.5072301416209557 ,0.69650123386415 ,-0.5106783905350397 ,-0.9395006178651212 ,0.141238949739102 ,0.7203454546950583 ,0.8262203114973394 ,-0.39969427662022966 ,-0.4315242155397977 ,-0.31394831545968666 ,0.3385487015438021 ,0.5178967178483748 ,-0.22201281116221214 ,0.959208780005363 ,-0.9863045459122453 ,-0.1155195302899189 ,0.15646282338684644 ,0.9000871910781667 ,0.4728423833929086 ,0.15853020223913097 ,0.17967952738933493 ,-0.051316426053558906 ,0.8338060819840953 ,0.3891311277588246 ,0.20918108514191677 ,-0.7641798040142008 ,0.5759003361383448 ,0.16364256158788285 ,0.6445607452364699 ,0.8149889950416499 ,-0.6375579758864725 ,-0.9406366798870345 ,-0.4795043737816126 ,0.20573256765964879 ,0.6856460268702282 ,-0.3555652336890422 ,-0.23335305421661465 ,0.6635406789402535 ,-0.30112452329011397 ,-0.5714922201876362 ,0.4136978080273695 ,-0.9144767558517173 ,0.8796921705325159 ,-0.6045644940402056 ,-0.07932681397096616 ,-0.3105576472303003 ,0.9933788542550206 ,-0.4303739107888832 ,0.6369280740840382 ,-0.43580563546437073 ,-0.4142519500255872 ,0.12561730185991538 ,-0.1498803758124564 ,-0.8218386646921667 ,0.7972141016775381 ,0.214813548468957 ,-0.20084941881427587 ,0.4757937241131107 ,-0.07150264820057445 ,0.6607325442460104 ,-0.6128798995119904 ,0.07009651771752566 ,-0.16699159201964042 ,-0.062445165576545864 ,-0.1117413524120712 ,0.5005295112199755 ,0.88762602254041 ,-0.8059766647076337 ,0.36441054190010386 ,0.8946540097373343 ,0.6725545383477045 ,0.28103222818843093 ,-0.9436149817466766 ,0.8497686714722122 ,0.0885596964070658 ,-0.7025497005502515 ,0.007141848701837893 ,0.5385274455311435 ,-0.14628504777032467 ,-0.9297669429596666 ,-1.0055965545699999 ,
-0.7243547195854911 ,0.6613637849803656 ,0.19523660085180072 ,-1.056924180931863 ,-0.4126799053248007 ,-0.760256471884052 ,-0.1876277896538433 ,1.1556773623787693 ,0.3782776562952136 ,0.706112094445609 ,-0.1511979502433487 ,-0.7564761901347169 ,0.14935161720502466 ,1.0264980728529869 ,0.5078566794242799 ,0.2057545093642819 ,0.7073093314624292 ,-0.19300157530450693 ,0.24895063703232695 ,0.8748649137925116 ,0.6014571162156657 ,-0.9777107729996383 ,0.9580061427351713 ,-0.2367762252183997 ,0.9351161393869454 ,-0.16829017831838425 ,-0.5587386805719412 ,0.2060302651941796 ,0.835475150431532 ,0.6084397276119838 ,-0.8135645179364415 ,-0.2513436362375934 ,0.4013903815992231 ,0.6839777191303902 ,-0.47041211671145583 ,0.9849155369682066 ,0.4762579839743544 ,0.7446905865678365 ,0.270527948119238 ,0.6119047679961309 ,-0.2141420877954247 ,-0.515874192603417 ,0.8134321085790491 ,0.33941792421211414 ,-0.5026007089974058 ,0.26668701127900035 ,0.24148954630705055 ,-0.4761245327522319 ,0.5104565096516136 ,-0.6498627997227149 ,-0.6290165514167962 ,0.4302495164188542 ,-0.883566914829746 ,0.23663833593702094 ,1.2263396197544194 ,-0.5120958305430786 ,-0.8677772117150283 ,-0.8172405311515485 ,0.7182732267407637 ,-0.0945153577830343 ,0.09177407873959076 ,0.10839005740432231 ,-4.4145906252061884e-05 ,-0.04302638637459874 ,-0.549312962166122 ,0.5718329175021581 ,0.1628643282395927 ,0.9069569771171522 ,-1.0481225061641428 ,-0.3037433378741686 ,0.21211840252925698 ,-0.7063183080683766 ,-0.30852985590766896 ,0.6790909501107275 ,0.2700474201954093 ,0.8923747592088547 ,0.7204037541691897 ,-0.22574565769151983 ,0.4851023074576474 ,0.10609345869260689 ,0.7201856377821141 ,0.6609617379498143 ,-0.2464735048510473 ,-0.4024223898579613 ,-0.6634345462179436 ,-0.03280937307893818 ,0.7700072758722013 ,-0.6800935208319348 ,0.007296197538718116 ,-0.17314344519828406 ,-1.1225374879537005 ,-0.18359236550359675 ,-0.39715820228843124 ,-0.04330398143976019 ,-0.2443729797308698 ,-0.562916606085951 ,0.559185360442559 ,0.39480263749061123 ,0.02177172863916082 ,-0.11156268607461056 ,1.0805225156158358 ,0.2611161565966025 ,0.2034474845658616 ,0.03433699266302523 ,0.08300825959867522 ,0.24094967036096476 ,-0.5394260172756847 ,0.8325711714143538 ,-0.16987616385549742 ,0.819420278581072 ,-0.4896595882051482 ,0.051369095546041695 ,-0.8272412477508473 ,-0.8019706211954822 ,-0.5452125828437314 ,-0.750846047339203 ,1.0684462230163974 ,0.687820174518908 ,-1.0667318285641296 ,0.5495547701202272 ,0.0014032251239186819 ,-0.17140055918450936 ,0.8402161612678145 ,-0.7716936134502554 ,-0.8360842163278723 ,0.27914341613443594 ,0.8578270535651216 ,0.51128989967728 ,0.18454290245431954 ,0.19914304325100354 ,-0.46121108021885415 ,0.19304145152736268 ,0.8384594670017615 ,-0.6469958788377758 ,1.1563060154424352 ,-0.5516889763992211 ,0.056179935405185254 ,0.7727321117153254 ,0.2352944095653598 ,0.5367273985715012 ,0.36594811475093314 ,0.09587166933904578 ,-0.8888475214545375 ,0.07418808427857629 ,0.5929186844946381 ,-0.1823517196429535 ,-0.9470803876222366 ,0.12493573967695505 ,-0.5402761243134413 ,0.03444524416564427 ,-0.45528502060782267 ,-0.5955605869441425 ,-0.16351700442524125 ,0.040961712082043134 ,-0.882269217776455 ,-0.9751108944411989 ,-0.9917015027641 ,0.653216133454228 ,0.3454753613621747 ,-0.19094968983645091 ,-1.0924673608146174 ,-0.13520399341802875 ,-0.8889684447704728 ,0.8646827848519141 ,-0.02321353685145757 ,-0.4900281843441784 ,-0.9505191956520511 ,-0.448181835619487 ,0.8546691937452092 ,-0.03345982417058946 ,0.31798842318237486 ,-0.6422173581677435 ,-0.3404888783573231 ,-0.6599770110351687 ,-0.6882606804480508 ,0.7125912173909209 ,0.026302490322380995 ,0.9058159893927519 ,0.3551787249356864 ,0.9537865907546114 ,-0.26602799008006606 ,-0.4580958842188656 ,0.4730037646463312 ,-0.44012851321565427 ,-0.8150837048702059 ,-0.05474444841146113 ,0.46622606066591615 ,0.3291226587406685 ,0.43230599970028233 ,0.779362607775295 ,1.0098596163834417 ,0.5888059315490314 ,0.9722913998621545 ,-0.29195939262397413 ,-0.10285183126706599 ,-0.5778191507894019 ,0.11347671028007963 ,0.6262030114763761 ,-1.0686583123393498 ,-0.029547612399321424 ,
0.011316435755061527 ,-0.8951734727370674 ,-0.24810539852850752 ,0.49564603780525934 ,-0.3549012357528258 ,0.725585194253966 ,0.8790483232520847 ,-0.34515980985222416 ,0.19161565548000764 ,-0.2508000841920818 ,-0.49470442573996676 ,0.09131424317931755 ,-0.7701679228490017 ,0.3855181407445365 ,-0.1482366482064732 ,0.3874365467584663 ,-0.7735303690090127 ,0.8511142324767675 ,0.7908503415167868 ,-0.9409630733658108 ,0.09358523097642651 ,0.39319723219818836 ,0.7181059367276643 ,0.48100943097884613 ,-0.2580637984027167 ,0.1011383811182297 ,0.2808376142250415 ,-0.3635103420795447 ,-0.5072119340608403 ,-0.9885061258218071 ,0.32311022805550205 ,-0.8038980110404711 ,-0.3893894526457252 ,-0.10851547124801994 ,0.16205863451061964 ,0.5007697930109719 ,0.9477346419851352 ,-0.6380262047997274 ,0.9437990970483103 ,-0.7325295721265017 ,0.6527179052367228 ,0.1677350697608066 ,0.7197144813753228 ,-1.0436180243775486 ,-0.4496659890766956 ,-0.6610513570990676 ,0.6957917997531808 ,0.824346725459592 ,0.403949874744333 ,-0.7665527646979932 ,0.5483701014052035 ,-0.5051935036394918 ,0.21311777208504376 ,-0.5634937891337043 ,-0.7148896263180297 ,-0.22584365788811334 ,-0.14802172164273297 ,0.6292423314314364 ,-0.6748628111330842 ,0.6624352695045018 ,0.9747805321698385 ,0.8422884451979602 ,-0.5561564510086958 ,0.11840265907009023 ,0.4678035398413099 ,0.9123192867978418 ,0.44654810505553755 ,-0.3981625400305087 ,-0.7495218005095547 ,0.6006527488018728 ,0.465908889577067 ,0.15862168846515762 ,0.13119656929165152 ,-0.019949372717028326 ,0.4403033786301153 ,0.8989673962312371 ,0.4750376600970715 ,-0.4662574462603234 ,0.35727465562702065 ,0.19925151743005753 ,-0.16011853092500442 ,0.6512618352177741 ,-0.5659184298323735 ,0.5914406902267698 ,-0.7671806651824804 ,-0.5336728441106267 ,-0.9145647655749652 ,0.9545683612878114 ,0.4720044368302777 ,-0.9431533410497562 ,0.07223558046668815 ,0.9402498450378728 ,-0.8263521825792076 ,0.7274917057379152 ,-0.32570524119692423 ,-1.0371201527719167 ,0.12087831161689745 ,0.6737574951289698 ,-0.6480415061723719 ,-0.0036048076370382293 ,0.9747467494373996 ,0.3198447374665662 ,0.4637085040422074 ,0.021402876951987924 ,-0.555962817403652 ,0.5471172505603126 ,-0.9434571576884909 ,-0.9731713028681714 ,0.616041481538191 ,-0.15639171176265837 ,-0.4928428045455715 ,-0.6784735935847943 ,0.3346479672739678 ,-0.18043008345325548 ,-0.08355306762340238 ,0.7958218835564711 ,-1.0228953254902478 ,0.6916634082831692 ,-0.2505074065818443 ,0.2731066952460286 ,0.3450793633695819 ,0.03964279871102828 ,-0.7248343004539016 ,-0.5297601786424394 ,-0.09928918140571583 ,0.4637964339085285 ,0.952404638388821 ,0.5511406669054065 ,-0.05618840538096297 ,-0.5282147927082814 ,-0.3888132723304702 ,0.061235273021626915 ,0.624132388957639 ,0.8625986661179895 ,0.07216809476887445 ,0.07904458745802759 ,0.5307831827188428 ,-0.25250467526402676 ,0.3933103830897512 ,0.3472976053625297 ,0.9097236390961643 ,0.8988084064710269 ,-0.4652292272203251 ,0.893468338683877 ,0.7461277101124264 ,0.7056252606845734 ,0.10438689520998712 ,0.7879549764701984 ,-0.34616206580019726 ,-1.0500342885268505 ,-0.17179820859608214 ,-0.2762646751324669 ,0.1518517287367492 ,0.044616439795966086 ,0.12836814686040687 ,0.8607038676118642 ,0.9327063261380358 ,0.10269396504519261 ,0.7331387983538388 ,-0.443284361602436 ,-0.13308445364949184 ,0.24454203901004662 ,0.6461805003642296 ,-0.3039212772081565 ,-1.0329841110193352 ,-0.23084753285694048 ,0.6930924499859606 ,-0.6458108641373633 ,-0.11341895358961468 ,-0.9986679664682613 ,0.22582333606556926 ,1.0813985180829695 ,0.9974109098488317 ,0.3742006175185903 ,0.9665860426446781 ,0.8685926673479493 ,-1.0003518252700252 ,0.08688037858747778 ,-0.06663827528286098 ,-0.21611976167738786 ,0.034208796531250155 ,0.9745830741968509 ,0.608016533022223 ,-0.6529215908609767 ,0.48976955947205564 ,0.18129924951042314 ,-0.2583884268501965 ,-0.17267848986531859 ,0.9502047071074194 ,-0.4931568211292661 ,0.35227053031846256 ,0.09008202169094759 ,-0.335569399734356 ,-0.5430631360858921 ,0.3962986149336395 ,0.14783719292181532 ,0.30735732253218484 ,0.7959222234317739 ,1.2169274706225037 ,-0.9134703206641687 ,
0.05254300590403965 ,0.8130503837584849 ,-0.30087255394107265 ,0.20369622194172043 ,-0.8319389110294132 ,0.7279717128617083 ,-0.9725421530350256 ,1.1122447798842816 ,0.4770585468927266 ,0.10161297730251398 ,-0.8387326908192451 ,-0.7043954292514105 ,0.8193442188632812 ,-0.31915070660430916 ,0.16577750347200512 ,-0.5978390430847303 ,0.10879298303180263 ,0.43802954308742703 ,0.015734349047306695 ,0.5999297251795319 ,0.8069634484029526 ,-0.33827289863571003 ,-0.40224752128392427 ,-0.42656859801850816 ,0.7806303176275216 ,0.6127037734077393 ,-0.829122068962812 ,0.37034800326239425 ,-0.897417937580061 ,0.5388898142930763 ,0.8203611577435317 ,0.07209756705969242 ,-0.9377290578828409 ,0.6042587357256354 ,0.20180636779680494 ,-0.9009560402007032 ,-0.2868213626301392 ,-0.043099830772669254 ,-0.7779831258113853 ,0.931529945896193 ,-0.7604802788220408 ,-0.4438990312863335 ,-0.25488841553855934 ,0.03713386579751063 ,-0.9387793962655149 ,-0.3693373528561345 ,-1.0258777133570696 ,-0.9647109556340314 ,-0.061808665796567124 ,0.18189412595674176 ,-1.1043102061824388 ,-0.10544810928999396 ,0.9981044786045372 ,-0.17263107299998254 ,-0.7730609523281222 ,-0.6106911508480695 ,0.4366542408817944 ,-0.2936040619828515 ,0.7581759789799408 ,0.9970673327717865 ,-0.2613980480316643 ,0.2250192447372178 ,0.5394035799064484 ,0.26035144512982783 ,-0.8741603567743976 ,0.8184373809527915 ,0.3579781614936023 ,-0.4319448296542581 ,0.9778994579493482 ,0.6085889649952657 ,-0.26781037801033225 ,0.2352859319160978 ,-0.03713534151372449 ,0.44600051434541904 ,0.4392681433175781 ,1.1008697345811138 ,0.8668534235393686 ,0.7176642840140789 ,-0.8782021038984399 ,0.9024982773124811 ,-0.2819736839339318 ,0.537046854323674 ,0.00646660814291309 ,0.6895713203938062 ,-0.5147257588303424 ,0.20957372308447644 ,0.028028561191923852 ,-0.18360065829026861 ,-0.6089585007800747 ,1.163920492640475 ,0.3753857973414229 ,-0.3683626393706544 ,-0.32813848466248335 ,-0.686378507070298 ,-0.9448672335735901 ,-1.1492483591983884 ,-0.7465025653964712 ,-0.843724279824879 ,-0.8229154558446832 ,0.03830053624247713 ,0.29814483234085415 ,0.3248712683066929 ,0.12934700025289825 ,-0.2944726049274446 ,0.3366465959871048 ,0.9172525958414971 ,-0.10489621558207671 ,-0.7856933101962534 ,0.47215105444190447 ,0.4394419526609789 ,0.7013050650886591 ,-0.13467328242863308 ,-0.908402726346036 ,-0.21704651715513168 ,-0.7287739191157164 ,-0.9618768624293278 ,-0.5223260231700945 ,-0.7443514876544295 ,0.5905072771329343 ,-0.25951688062068456 ,0.032933132126836365 ,-0.8700822125536678 ,-0.7095663401358895 ,-0.5213873897253714 ,0.893223265731635 ,0.2323408782950997 ,0.6448840447336731 ,0.6284094123834205 ,-0.0605946695604091 ,-0.1585340100182969 ,-0.21309040909663474 ,-1.1194570188841648 ,0.32639694621057336 ,-1.0743412036170028 ,0.7134367062867355 ,-0.14773664036736245 ,0.30736374001517214 ,0.9360521164680171 ,0.6997363264310141 ,0.5761675519843755 ,-0.18873578679983777 ,-1.0411182517290143 ,-0.3774974221530807 ,-0.5016510334144506 ,0.8766473537903073 ,0.011486537795698137 ,-0.8064334648167041 ,-0.5575205889647257 ,0.7619680227077211 ,-0.345126945287143 ,-0.1758893129495915 ,0.8682505509520752 ,0.6260137312624404 ,-0.6517862935647899 ,-0.6298274740145581 ,0.3039025973835485 ,0.8250654974779601 ,-0.6868925265377904 ,-0.09202550909433685 ,-0.8854090416966374 ,-0.3783229274461327 ,0.6903087880193185 ,0.21972840847302785 ,0.0022244833985405506 ,0.636526762126524 ,0.15068455196982697 ,-0.011664807856194542 ,0.5248670539362347 ,0.7741012994179194 ,-0.6885677334628627 ,-0.3276671867031521 ,-0.09927042359108862 ,0.6053918801118632 ,0.38713607295751434 ,0.31838828933852575 ,1.0018034637040758 ,-0.9368826636055403 ,-0.49363304523648627 ,0.0382265906610673 ,0.879479695592181 ,0.9523543626566046 ,-0.04276144329773647 ,-0.8584645117711726 ,0.4023880713961337 ,-0.7884627160862198 ,-0.7538862733843672 ,0.4864170023241241 ,0.11902736692362773 ,-0.7438605792312599 ,0.2789674792698461 ,0.8498997077574689 ,0.35757909571882107 ,0.9209915437501198 ,0.16859578720134755 ,0.617252191334291 ,1.1107214854402434 ,-0.9768432934918949 ,-0.16638536988249025 ,-0.6892490842024555 ,0.47112762990945084 ,
-0.16261281054373178 ,0.5995942152204875 ,0.8579559369145935 ,-1.0396111019833736 ,0.5606850348904235 ,0.4505579240958416 ,-0.6186043159308379 ,-0.8363523580402861 ,-0.011298111355821427 ,-0.37349389429747226 ,-0.6832991949179847 ,0.45593111602910796 ,0.28602065244839253 ,0.14244053526751388 ,0.7149708836443585 ,0.13418011975073418 ,-0.11733989440727596 ,0.8821923456371304 ,0.019230246477143678 ,-0.6850635282461678 ,0.653544400799437 ,-1.1165746193187356 ,0.9437108792256369 ,0.5715239520575738 ,0.9985751251241154 ,-0.6083431955580056 ,1.1058020429405484 ,0.6366276175661911 ,-0.5774595831033023 ,-0.5769606172656364 ,-1.1207027003183436 ,0.3049397302831606 ,-1.0019784085002523 ,0.03151154554487339 ,0.8003876479510869 ,1.0049224240267747 ,0.0444001681780451 ,0.18394101490247733 ,0.3923609553808134 ,0.6636701861517947 ,0.7584794636821894 ,-0.5865881969504461 ,0.4695570519703775 ,0.5796411121512598 ,-0.5401198601097159 ,0.12328999735409264 ,0.42942741941074797 ,-0.733865051311188 ,0.07551629337117505 ,-0.10710522406238779 ,-0.4232152054252217 ,0.9516642626638849 ,0.4405547989421435 ,-0.7364379335700115 ,-0.6081912586669941 ,-0.22052777071281549 ,0.4927036727598281 ,0.5382782494080083 ,-0.019443336772132905 ,0.0712959943119152 ,-0.48109408220240557 ,-0.8698550609655382 ,-0.12823013725499946 ,-0.0646268921053539 ,-0.728837125385807 ,0.5252616948095671 ,0.07087973833075889 ,0.48778815889769767 ,-0.38707512759988344 ,0.808650963099195 ,-0.09498508343806174 ,1.0842820264954998 ,1.0381719378455236 ,-0.8563042519753437 ,0.7342890285957936 ,-0.8698169645820604 ,-0.3219307247998997 ,0.11858228177830146 ,-0.26180487258427365 ,-0.5363842590815955 ,-0.1790906305583054 ,0.47436007591897206 ,-1.015021432494595 ,0.9999120359966538 ,-0.7270616155810934 ,0.6621629382545375 ,0.3247985754394358 ,-0.3206834500408516 ,0.8328054089790056 ,0.44787401771304125 ,0.8560267969761726 ,-0.6122437484438608 ,0.37667404122538395 ,-0.5256372584988477 ,0.3003642799347001 ,-0.6609203639662435 ,0.35132324488163 ,0.6236975847941504 ,0.07026381177364907 ,0.6297482203761108 ,-0.8348910280968014 ,-0.35773611077150197 ,0.12021747600936264 ,0.05749278810934816 ,0.4339285354899718 ,-0.3431054062918405 ,-1.0689975084498915 ,0.25216860581350165 ,-0.5279924273576465 ,-0.29972113793355915 ,0.7939870838807482 ,1.0132753167786301 ,0.7351943168353666 ,0.7621041561250423 ,0.8772599832284843 ,-0.875872495290624 ,0.4915398214742869 ,0.07807359502227515 ,0.5359844517389912 ,-0.3973183236058861 ,-0.4041627209900608 ,-0.25117075491693364 ,-0.9801231728766805 ,-0.11681462546090904 ,-0.526532199671506 ,-0.8387806994264507 ,0.4371695418361462 ,-0.8647359087054516 ,-0.7034721839146714 ,-0.7810763825535677 ,-0.6255028368702836 ,-0.04000653221585307 ,0.5033775440654161 ,0.6312452494366237 ,-1.075522587430838 ,-0.279603326084968 ,0.4086508902731351 ,-0.4422781066995096 ,0.4299446906386647 ,0.11483016428609451 ,0.3459781994453521 ,1.1681419377324995 ,0.7486671679836306 ,-0.007210798059012813 ,0.7381987356042395 ,-0.6281144354370809 ,-0.9464897386471287 ,0.8962022395065187 ,-0.2999772533488121 ,0.0856807731257686 ,-0.14285852282230754 ,0.9633577245210867 ,0.742024137318072 ,-0.853225986313411 ,-0.2105177047256857 ,0.23063236136470988 ,-0.7098252998725902 ,-0.8055576023293135 ,0.44899828232038175 ,0.7838155621235168 ,-0.5414247087190166 ,-0.8992702082140253 ,-0.023680900153374096 ,-0.6476570644244987 ,-0.2989826681596145 ,0.4440422964065817 ,-0.5553389764240465 ,-0.1548633490530835 ,-0.8562791922690524 ,0.286445195423305 ,0.3582764040093132 ,-0.7509522293683135 ,-0.5556924333640421 ,-0.7198940983158785 ,0.6040257436398568 ,0.12753270019284163 ,-0.38405699723361986 ,-0.5611140356218725 ,1.135423749987656 ,-0.0488000749411093 ,0.5703612697198965 ,0.9093542337859148 ,0.6642548579956978 ,0.650670482409838 ,0.17936521613459128 ,-0.7871562784816246 ,-0.29415805210047363 ,0.4482455925663951 ,0.9098267197030416 ,-0.14736193267504388 ,-0.7764585684139664 ,-0.016509411566432826 ,0.8288669989947463 ,0.9707722891303208 ,0.8387763987063698 ,-0.1422260226940961 ,0.9441769620377145 ,0.8168291621840877 ,0.04844594577842305 ,-0.05771466361429804 ,
-0.9860987933108902 ,0.13347990129264303 ,-0.14935682573361148 ,0.3108929274965895 ,0.6122720395983665 ,-0.320202194059848 ,-0.41906023842488616 ,0.15957827018748796 ,0.3083989456364175 ,-0.16130925257824746 ,-0.1167895457797633 ,1.0567779000934947 ,0.8541571543712513 ,0.2194419559347603 ,0.5618399035430858 ,0.8208924555903023 ,-0.45916113558817867 ,0.10862754452712498 ,0.2640268149340178 ,-0.802218102778385 ,0.3900569660627672 ,-0.493268147523728 ,0.7556781897714258 ,-0.0730873535688458 ,-0.2832930352015756 ,0.2839484772020575 ,0.4597354054524627 ,0.7404127333486598 ,0.7583750383058698 ,-0.7555309936722463 ,0.6845537613411659 ,-0.29271093140571947 ,-0.22256457375951255 ,-1.198068105087774 ,0.23204876044322018 ,-0.08897401932647833 ,-0.29856968479519763 ,-0.5476187361052032 ,-0.10320590015299576 ,0.5963798749172473 ,0.2139896690823001 ,0.7075192631100672 ,0.43793670511536137 ,0.1269231324044514 ,0.8386701188623009 ,0.43107559456901884 ,0.013739254104651072 ,-0.8646539743359569 ,0.3291131512710654 ,-0.616120416497027 ,-0.9303895581524425 ,-0.34061875494738963 ,0.6823257169736252 ,-0.014728413762963348 ,-0.8093172527183794 ,-0.6322555281082215 ,1.1320628196842264 ,-0.25935248725406607 ,-0.6808354528571327 ,0.5629603840269393 ,-0.7028399940004835 ,-0.40029342370336646 ,-0.43313436398553296 ,-0.7694923716885083 ,0.34634527173986823 ,0.01563316311656439 ,-0.1779561754793223 ,0.6630505820187478 ,0.6906469069888775 ,0.5593842110621327 ,-0.19858756692749402 ,0.24010642719491904 ,-0.5679919277900857 ,0.7341139863397043 ,0.695334368735453 ,-0.3194121229632531 ,0.4285656930656084 ,1.0200855090973862 ,0.20747938548199973 ,-0.7556539821806396 ,-0.9039529561003664 ,-1.0102252028755998 ,0.47668419204699436 ,0.14934722105099185 ,0.5690048263495527 ,-0.09738692570823095 ,0.5435743513673985 ,0.80068501594339 ,0.3858207642117697 ,-0.44561506719145777 ,-0.3541352903669103 ,0.3583126026962783 ,0.5225947305057231 ,-0.5842334176956007 ,0.40430401228910035 ,0.07952838583529662 ,-0.7184438858358204 ,-0.6381382180479415 ,0.010115841193000623 ,-0.22678482401188058 ,0.6793356360598375 ,-0.5630180731003815 ,0.18906964958335795 ,-0.1057254627477525 ,0.5579989815128933 ,0.8472398319227965 ,0.9911402661245883 ,0.2369174313632128 ,0.8886867591732204 ,-0.5429532906744441 ,-0.6823534978457118 ,-0.11331067603965166 ,0.23703153521412845 ,0.5009690464135024 ,-0.6575681278848323 ,0.818501397257003 ,0.5850123850154872 ,0.7099436802161192 ,0.336965876339066 ,-0.40682829600406595 ,-0.9306936084939512 ,0.4593131030605438 ,-0.4033655497987756 ,-0.8142618860647859 ,0.6286340134338715 ,-0.7280134191438348 ,0.9339450072704507 ,0.009165867388977997 ,1.009808693743106 ,0.20062813531922633 ,0.713489738178415 ,-0.1973503349596583 ,0.5906308787697716 ,0.02964591461130872 ,-0.5096516511051161 ,-0.18044789964054725 ,0.4780854943426678 ,-0.4566164497555509 ,0.7703988440374617 ,0.5837344779878355 ,-0.16772613780025125 ,-0.3127765536075642 ,0.7003135015230362 ,0.445338487433867 ,-0.5665040535478679 ,0.3683656137192706 ,0.639070206760336 ,0.8502645782161617 ,0.7592804168112952 ,0.6415437784215249 ,0.6886794264630378 ,-0.3064390967319446 ,0.4336150969931997 ,-0.3062121008176149 ,0.29058507662962213 ,-0.7987276276241599 ,0.6831275977586933 ,-0.6730421486972968 ,-0.10280274516356314 ,-0.17287749045119774 ,0.8716435943544875 ,0.016822204689143028 ,0.5124814657309578 ,0.5936627439926131 ,-0.48634211470199673 ,-0.5171297329188411 ,0.42205265912268525 ,-0.20874085933603098 ,0.9986037958654156 ,0.1501953310686578 ,0.9008205815826594 ,-0.8177563405844844 ,0.6308817091967825 ,1.0312702727391512 ,-0.7774940822322705 ,0.4793188911475938 ,0.3890387579619448 ,-0.3141208380614198 ,-0.20700371480766455 ,-0.43545316605967277 ,-0.6353535744591479 ,-0.17695634859515635 ,-0.3146922599164427 ,0.26164557424072726 ,0.7968218251001824 ,0.5243067812462004 ,-1.0187064775435273 ,0.8619524889185569 ,0.6956947042516837 ,-0.7127213846215744 ,0.845455767633904 ,-0.09466021880060418 ,-0.34516664484105136 ,-0.5489938043181236 ,-0.4100377174504049 ,0.12665703432357123 ,-0.1499846745556248 ,-0.6914817856507518 ,0.20702729734498423 ,0.17048576566594434 ,
0.26007543467155714 ,-0.45747511802769436 ,0.4430637061858009 ,-0.574897834685988 ,-0.470997743099361 ,-0.7438758150860748 ,0.4160501117215501 ,0.6269280820051317 ,-0.886871130550428 ,-0.17543179079040944 ,0.23022246961082815 ,-0.8783789802177778 ,-0.7832362010150963 ,0.43537925443211195 ,-0.7758592970393994 ,-0.3232496791993014 ,0.10203553627439874 ,-0.2643611603723189 ,0.591904512106309 ,-0.5375044079623301 ,0.27669651311341154 ,0.44643362413806575 ,0.5500569971990079 ,-0.5040435658363377 ,-0.671832238028406 ,-0.965234587919884 ,-0.1761338523426898 ,0.637563416712909 ,0.011576786581258137 ,0.18155635353528035 ,-0.6878799889146946 ,-0.7979755655414428 ,0.06433547146049834 ,-0.9666129725931839 ,0.1060900211011391 ,-0.3874612678264773 ,-0.11859247344871293 ,0.023666680094180624 ,-0.41339081838054526 ,-0.8520513153520263 ,-0.2273146810656932 ,-0.04308908192495343 ,-1.096910979815287 ,-0.9006731986519783 ,0.4711864690956129 ,-1.0028338650422626 ,0.9674378735220042 ,-0.5729787690144814 ,0.9661982855619966 ,-0.7122420352572495 ,-0.8222523993237439 ,-1.0141465909175615 ,0.7100413316369814 ,0.8840701079814911 ,0.9539466180909102 ,0.7389502696657573 ,0.9196591963101516 ,-0.42646805270393245 ,0.7263708516845581 ,-0.3858717252809435 ,-0.7463713282158142 ,-0.44459310262274926 ,0.8668451114763289 ,0.7362806960055251 ,-0.792202145943822 ,0.4050671118263145 ,-0.6236974959213383 ,0.21592622790610805 ,-0.48942943919873866 ,0.2417708031376985 ,-0.1596978373674679 ,0.6420606599721076 ,-0.39181272840061687 ,0.1874279329840604 ,0.7485726202793589 ,-0.37274661189512054 ,0.3859432936929506 ,-0.5867668799671785 ,-0.25169175877399813 ,-1.0070207761636447 ,0.5975523989453642 ,0.13621756589823386 ,0.3113339157449293 ,-0.9860485679463294 ,-0.9252042432049663 ,-0.0058813776139421126 ,-0.798634578815149 ,-0.3743259863694584 ,0.16275132852079102 ,0.26827610355661524 ,0.3889909941982307 ,1.0926131306870794 ,-0.9686198841438508 ,-0.5518895901697898 ,0.782020572241149 ,0.596947306834402 ,-0.700749327321634 ,1.0628113034332385 ,-0.2067375461438349 ,0.32262112800780396 ,0.27732098103432645 ,0.2876096831394773 ,0.9639360851351294 ,-1.0338870841252907 ,-0.47640412245043684 ,0.6208703361067884 ,0.3236158773598982 ,0.6156085793057244 ,-0.9534650694379245 ,0.6633071613822196 ,-0.6634947507640291 ,-0.57611589408723 ,0.7679132762103353 ,0.5596340114286803 ,-0.3707354203074528 ,-0.4238963806687051 ,0.4937605653070316 ,-0.042692674926470664 ,0.3837147082628533 ,-0.7487723403646381 ,0.732805985881328 ,0.15358917607897749 ,-0.6738545045759006 ,-0.2789743433071783 ,-0.5395513575808027 ,-0.3859864366291695 ,0.16905430296616283 ,0.8194563555871446 ,0.9383401810855287 ,-0.05335221937119075 ,-1.129115712350576 ,0.9008159865656534 ,-0.7252412282872163 ,0.6226167857229383 ,0.8509214461197963 ,0.8823904541979654 ,0.33817915066171234 ,-1.1018423892983664 ,-0.35038346134697296 ,-0.8158486776867769 ,0.9230749498725831 ,-0.059650227294644705 ,0.4173801621858049 ,-0.5991161358414707 ,-0.8224544291787842 ,0.6122636535706703 ,-0.3879797743280976 ,0.5124697370323282 ,-0.028812702257576463 ,-0.3542021122402341 ,0.6256620320882788 ,-0.5935552901217712 ,0.5577376738107724 ,0.046344319895250174 ,-0.8964730206232396 ,-0.4456933679528747 ,0.3801480093064334 ,-0.29008489064768056 ,-0.8600877786046331 ,-0.7639949289988124 ,-0.24780095418820702 ,0.35041438781658796 ,-0.3592702513131501 ,-0.06114462251661115 ,-0.508409167321416 ,0.2321358467872969 ,-0.4651012253867662 ,0.8011854383284552 ,0.4107081319235033 ,-0.44267722679477883 ,0.10588165415950618 ,-0.5329984502947956 ,0.10121085424821918 ,0.35199126673547854 ,-0.2042216917512161 ,0.48272054572692275 ,0.5948094272495515 ,0.2790962226268434 ,0.47523381500338513 ,-0.4103956969562707 ,0.2787307139427162 ,0.8237703832863198 ,0.30227190951534894 ,-0.5675670500713145 ,0.9079110999126132 ,-0.0157170693829516 ,-0.5562839159402876 ,-0.727403551036126 ,0.9059794698064129 ,-0.8618486252561498 ,-0.29051986980158157 ,0.3600111571426621 ,-0.7400702950048982 ,0.2502601461346855 ,0.08557192928343199 ,1.01887007854717 ,0.023437563747068763 ,-0.9016154773406205 ,-1.062240978960697 ,0.3904180224966877 ,
0.9607701587483883 ,0.1625498453883933 ,0.7035114971599677 ,-0.16257058892015508 ,0.9110188297830951 ,-1.2161255124390233 ,-0.5150644462651971 ,0.7170821932340163 ,-0.12316803200573803 ,0.6685411388335621 ,0.38831090249113165 ,-0.6488620061806581 ,-0.1870190296585986 ,0.1548480943447604 ,-0.7174409896439967 ,-0.07905711655535701 ,0.09878977773160409 ,-0.4164620489646498 ,-0.978574724030117 ,-0.5571964794963846 ,0.3326643407587631 ,-0.1422668919260825 ,0.6633288875136241 ,-0.1395305060073221 ,-0.34154892476298737 ,0.09150047285242649 ,0.3271987796083102 ,-0.8733035609287678 ,0.3684601787999983 ,0.8127099094614407 ,-0.9063735122163392 ,-0.549888037487878 ,0.19902834166311423 ,0.431024926809942 ,-0.691420305226638 ,0.7343424336201729 ,-0.9505008611815449 ,-0.7293973519852579 ,-0.6667918159027151 ,-0.36641851599461395 ,0.8459413756689493 ,-0.3892431624010959 ,0.7083641228557668 ,0.5633567533952274 ,1.1628624188427619 ,-0.42346408325907137 ,-0.6516549857077102 ,0.7523264270228284 ,0.2811229335444502 ,-0.17301595844263867 ,-0.09908064086165135 ,-0.615991365865669 ,-0.6725346806335402 ,-0.7615993432443919 ,0.23203179901213117 ,-0.0602402579434677 ,0.5524373514667938 ,0.3569855967059846 ,0.8920624359540381 ,-0.7792215382231574 ,0.22747696792754799 ,-0.02351395475840587 ,-0.7513558477559309 ,-0.5322220989910814 ,0.6054282529627559 ,-0.6342244781261412 ,0.022249750260132563 ,-0.19670131014828862 ,-0.18984165399109282 ,-0.4149486402307859 ,0.25546856512917837 ,-0.6714242973998636 ,-0.2867448375439853 ,-1.1623436626179617 ,-0.46854468180020653 ,-1.0553463219863384 ,1.0776754250688898 ,0.4132161153886684 ,0.23629889393974687 ,0.4168802730837734 ,-0.01968708668405568 ,0.08415590155849054 ,-0.38790466820750197 ,0.028240570511227553 ,-0.6182908396166438 ,0.7566181780588654 ,-0.3978484696048489 ,0.028695328743195563 ,-0.05093615358302965 ,0.06151981470485202 ,-0.9904824520709804 ,-0.6755345895435243 ,0.9532831114770418 ,-0.062216830740378266 ,-0.7872348016605073 ,0.5724901273946094 ,-0.9314170231790163 ,-1.031144482981742 ,0.34257726143390915 ,-0.38398321269991054 ,-0.8119685368701448 ,0.7663318244281814 ,-0.2970793449660751 ,0.013066640791858836 ,0.049935425519156224 ,-0.606766017250117 ,-0.19242718118941565 ,0.1335131550439272 ,0.7350021697244051 ,0.4416837579585192 ,0.1493852519671042 ,0.42252493004353253 ,0.40139677662313605 ,0.11654413147700896 ,0.6057629000860559 ,0.06936644851152987 ,-0.801149551460251 ,0.37270652678270083 ,-1.3151994649947893 ,-0.34336729371440916 ,0.05629318137136617 ,0.7706890850813946 ,-0.4249041357831173 ,-0.7783689732032741 ,0.18006823625166693 ,-0.5959457081778297 ,0.4062241201849372 ,-0.6993913103926921 ,0.6262509447650547 ,0.6094533185782508 ,-0.2626581148662853 ,-0.6788838288603308 ,-0.0993617163706276 ,-0.6378455137557844 ,-0.7731759585665349 ,0.7509043412924673 ,-0.34650937273466914 ,0.02658326619280127 ,-0.7426153783752373 ,0.21006394745857707 ,0.20170783784462604 ,0.09270492562205714 ,-0.7072063376798428 ,-0.6405990703953479 ,-0.9717442719605645 ,0.451988066320813 ,-0.5116198829923144 ,-0.5227298638177298 ,1.016887264971529 ,0.1303795622742971 ,-0.42643456434796384 ,-0.0037367886268294404 ,0.015525671134342056 ,0.5884024216422832 ,-0.7545983965401918 ,0.7593256835308183 ,0.6021753698556193 ,0.49869952408173235 ,0.3726258085423789 ,-0.031703463081174485 ,-0.595668549874215 ,0.40531946537480396 ,-0.18126841328518228 ,-0.7112848890169834 ,-0.12203495200649328 ,-0.4762972813795612 ,-0.7621961346232023 ,-0.48878356653234695 ,1.0042184007860053 ,0.42543668766973347 ,0.7807900564520546 ,-0.6318628700594108 ,0.5268249495364578 ,1.0164365642267665 ,0.38368765038809605 ,0.7046161282123176 ,-0.7681500779790524 ,0.46369321412954734 ,-0.49803594237086307 ,0.2657630976057174 ,0.5927039985709883 ,-0.7447939048623308 ,0.055010638187997424 ,0.2117316798683386 ,0.26126286602823057 ,-0.1750630546303182 ,0.40395460815469064 ,-0.20855252531912385 ,-0.7376986158299902 ,0.9612486548953889 ,-0.47248479114919295 ,0.3983723581243918 ,-0.35739280291626996 ,0.6861178544604075 ,0.43417867374845526 ,-0.7629109553801161 ,-0.8966027508246286 ,-0.5741372001257828 ,0.5790810267757242 ,-0.47246828569952387 ,
0.09192399953358164 ,-0.8460768747358014 ,-0.17683131199495156 ,-0.595669054863994 ,-0.8516506670483122 ,-0.45226874984104476 ,-0.2572303088896341 ,0.16591164437946015 ,0.23536463978758998 ,-0.1771782402945031 ,-0.2326316046834895 ,-0.28894109302148946 ,1.0790241096453925 ,-0.6369726648874676 ,-0.9952875125722415 ,-0.4328567952796526 ,-0.6270079646937521 ,0.15922218878427596 ,0.7092271154301109 ,0.7020227617502491 ,-0.6792678855566644 ,0.178720993114605 ,-0.8540358366739669 ,0.5898406599418134 ,0.6307789393923601 ,-0.16325738261403971 ,0.3358369162030865 ,-0.031926591721167456 ,-0.2558159090450709 ,0.2091173625939801 ,0.9487486478696457 ,0.13437585889001627 ,-0.0712766566962276 ,0.07953271056298522 ,0.7741532962540545 ,0.6738105196303387 ,0.34877209147291627 ,0.6756111844714998 ,-0.8634592948401408 ,-0.6699264447046456 ,0.6390381306333429 ,0.4584427831974563 ,0.15810161343483278 ,-0.023876551737017974 ,-0.47580228350326664 ,0.5921881608748462 ,-0.09069776110305075 ,0.8752850279468563 ,0.8189378423582888 ,-0.06299615275295334 ,0.7654071028352061 ,-0.8496527964693732 ,-0.5197891114073864 ,-1.0353614189216265 ,-0.2505588332674682 ,-0.4666684558206734 ,-0.12046307325780536 ,0.8953477878140489 ,-1.036562621912054 ,0.6635832098915081 ,0.5876555871608324 ,0.19813026064689832 ,-0.24183039360462918 ,0.2908346179553353 ,-0.49732393737353237 ,0.09409477250268186 ,-0.17161988157998045 ,0.9467985252229391 ,0.5475341562857454 ,0.4809621933988105 ,-0.7928985055318559 ,-0.6805635876552041 ,-0.5928388125296152 ,-0.903523175290849 ,0.5570829925828026 ,-0.19164397631835414 ,0.9172563828037265 ,-0.9627813586086071 ,0.12246537314609476 ,0.09659827893532347 ,-1.029236748833248 ,-0.29875454066187745 ,0.38897956367305064 ,-0.3868622820159198 ,0.3806553587879228 ,-0.11142514221344307 ,-0.5323126232041906 ,0.2000070639380432 ,0.9890151925603028 ,0.035837631410379024 ,-0.7819361553883772 ,0.9112280616019346 ,-0.42963654762763887 ,0.9251698744544244 ,-0.28186922199034997 ,0.8566332966321448 ,0.5718074377644818 ,0.22445120714616446 ,-0.1149204721894223 ,0.39309986562920596 ,0.13340981494945042 ,-0.3550823870173513 ,-0.3637788538987932 ,0.8016724095578116 ,0.30821124720021453 ,-0.3128370042470927 ,0.19773925994828928 ,0.0017607789199094448 ,-0.8801712706752854 ,-0.017804373957598686 ,0.858623319977697 ,0.11495310204190878 ,0.3584094266099934 ,-0.06982489690405912 ,0.15346558021077034 ,0.08422868391199709 ,0.49074543271874566 ,0.7349948992662583 ,-0.19800804905276545 ,0.24907761153106683 ,-0.5654542086441148 ,-0.4317767887350839 ,-0.2288486088309214 ,0.6840683249200606 ,-0.926771247794023 ,0.3889338460101308 ,-0.7081509458485897 ,-0.8184780442207954 ,-0.8599775503580502 ,-0.7370317257326696 ,-0.6619402839614761 ,0.638903573653534 ,0.7995457694510182 ,-0.6415483752246164 ,-0.6801221138086216 ,-0.60430902760661 ,-0.0008371083005783986 ,0.7350711449174165 ,-0.5739880334814691 ,0.5676706257424 ,1.2931320016489016 ,0.35288246588780126 ,0.0044431213945623806 ,-0.15371098706216318 ,0.6354534832137715 ,-0.15555190537286778 ,-0.43371289876579955 ,0.2570462290420502 ,-0.1362810599254842 ,-0.5924703834654286 ,0.34957188436226605 ,-0.32490420489308125 ,0.9127688626683926 ,0.29697932350492645 ,0.3643184953264648 ,0.5821006923234658 ,0.6867618044833651 ,0.4621409252251366 ,-0.20396869035690895 ,-0.15010250139767342 ,0.38629952589649114 ,-0.4508635250256423 ,1.0347079534995969 ,0.8132190474611839 ,0.0580123249065234 ,0.4369365727382383 ,0.6402814491611676 ,0.32900466962626085 ,-0.6348488797176641 ,0.11341102112964446 ,0.10605018823835094 ,0.9533995801560102 ,-0.9070448685542578 ,0.2580230645716932 ,-1.1450969563253515 ,-0.9745382571778015 ,-0.5420619528811215 ,0.8087109351889085 ,-1.0642805286843011 ,-0.13914967510800857 ,0.33915946519478574 ,-0.20591975004181529 ,0.4574400928473738 ,0.9318002614721193 ,0.5515773195354053 ,0.35893983759677106 ,0.16744526790633096 ,-0.9925071691731373 ,-0.5760835424567663 ,-0.965492085318787 ,0.13934474344400127 ,1.0544023920401273 ,0.5646077936945006 ,-0.25033608029908155 ,-0.8337075701471053 ,-0.1401949315210102 ,-0.7805930460777895 ,0.30653575166994923 ,-0.2221467668324115 ,-0.2357427504855339 ,
0.17828221218885362 ,0.4630652363647272 ,-0.8096009602790034 ,0.4244997264568768 ,-0.021665083099034588 ,-0.3067197951509931 ,-0.161646167027441 ,0.7747538281956777 ,-0.9874674166897176 ,-1.0525757769409831 ,0.05598917938382514 ,-0.5204060359658298 ,-0.42680896029173426 ,0.263436889287791 ,0.33737387676183 ,-0.04444635091140636 ,-0.4552144841264209 ,0.3907759999425652 ,0.4116654893964956 ,-0.33911151644795456 ,0.6402053321015196 ,-0.6162225039208051 ,0.8994465748608712 ,0.5593433495916573 ,-0.5402131920922161 ,-0.3637400673052553 ,-0.6474658553997529 ,-0.5073710829381934 ,0.5606386176429867 ,0.066647240083171 ,0.32715483924412914 ,0.5959762262324837 ,0.5558500194917539 ,-0.49525710586204214 ,0.45003583799201125 ,-0.24875191984854528 ,-0.5456718552065725 ,0.8491670367912294 ,0.7404776703249045 ,0.36822350553816696 ,-0.14198296749442818 ,-0.625575871379156 ,-0.7296449532171071 ,0.5789213087576747 ,-0.2517826704975638 ,-0.9722029451126961 ,-0.4401343057849379 ,0.17683281561454176 ,1.004235028414615 ,-0.05481436767154861 ,0.6953087702732726 ,-0.8767529747280582 ,0.372925888977301 ,-0.6248568075090751 ,-0.3421597722266015 ,-1.025591806186029 ,-0.6875832904436278 ,-0.8178745079157104 ,-0.7945022377196734 ,0.6960875505225909 ,-0.6672849500178767 ,-0.06401554770591614 ,0.9328553045584469 ,-0.06696671030713447 ,0.8583458800617014 ,0.5923073456498525 ,0.8234278353856351 ,-0.16750210410199748 ,0.6914684782074836 ,-0.6912562911149075 ,-0.06780238415283174 ,0.5750853288417006 ,0.5244088397799188 ,0.6534402546382176 ,-0.9667039329986995 ,0.14296795836781506 ,0.464533714763471 ,0.10284817352133852 ,0.7418335862283839 ,1.0501999134764597 ,0.802592727953879 ,0.3831272471451284 ,-0.5772011696912496 ,0.629409623844524 ,0.40111696818309495 ,0.5918170402582624 ,0.6546933481479554 ,-0.39018646091402304 ,0.32903699987727664 ,0.29932684427951217 ,0.03364358686336362 ,0.24196418630330374 ,1.236679568004947 ,0.6834153043164224 ,0.8878701318441049 ,-1.0308157013561445 ,0.888377916750223 ,-0.7039574969950357 ,-0.11956643201210025 ,-0.9446784062585495 ,0.6767345665531581 ,0.32978382400365425 ,0.1363921499254944 ,0.8257908733434122 ,-0.5001617069325881 ,-0.7159291713437708 ,-0.014502894288248865 ,-0.9585502230946306 ,0.8232093367861861 ,1.0773420833751868 ,-0.400141605752241 ,-0.09109821499284693 ,-0.4708892379659399 ,-0.050964032210427446 ,-0.5505388352254335 ,0.5653263095053008 ,1.0029852637373025 ,0.6349027430251208 ,-1.0136115563489785 ,-0.05171145540708714 ,0.6766372661252434 ,-0.7955713115090072 ,0.19489748514438848 ,0.032706552248426446 ,-0.9532886309714125 ,-0.6552001894102202 ,0.5226546882191938 ,0.05517502335905153 ,-0.4561264057896184 ,0.45912567641389634 ,0.596024084430008 ,0.6774642827101179 ,0.425697423687599 ,-0.7034405007930479 ,-0.2062298960987533 ,-1.0175798527475728 ,0.2680027881650549 ,-0.5421182444140812 ,-0.23425317986889585 ,0.6698903746784807 ,0.42090017012414177 ,-0.9698772911753625 ,-1.1759662872760328 ,-0.40062440286854384 ,-0.5585945949115619 ,0.3875815599968047 ,0.7869031878377469 ,-0.38986741045558704 ,-0.5288122720932416 ,0.8647120623019129 ,-0.5702470481775791 ,0.7494037165842512 ,-0.3109686580915411 ,0.8618461774243152 ,0.21274870771520166 ,-0.9026104886880486 ,0.7990854187129931 ,-0.6765846330673214 ,-0.32353135937409344 ,-0.8033933643366472 ,-0.9840288833009844 ,0.27469465352619715 ,0.41139130561765824 ,-0.7001199804740691 ,-0.9884061843246076 ,-0.8807912182096478 ,-0.32414918549063776 ,0.00970757794119649 ,-0.692782926973801 ,-0.9433940280436262 ,-0.49542991368768535 ,-0.4967688261793092 ,-0.6209395202773469 ,0.6155864045128965 ,0.5972621279713233 ,0.8488941423623891 ,-1.1707677201952276 ,-0.7249289226392002 ,-0.6161527748357359 ,-0.13757242486314764 ,-0.10963116681794197 ,0.16815697912647215 ,-0.06599499108865714 ,-0.2937132134700259 ,0.9725768487902504 ,0.4717889192967275 ,-0.16414704632044042 ,0.9798134276380337 ,-0.5357118257058416 ,-0.8687318852484739 ,0.8812071280073863 ,-0.3019930161193243 ,-0.5650602751933227 ,1.0904225485758468 ,0.7028542106015813 ,1.1574090310503524 ,-0.5601880974485481 ,0.1521833218221837 ,-0.8665410607057901 ,-0.7343684181504906 ,
0.311385474044905 ,-0.03060839313865198 ,-0.9736255240272897 ,0.9927915131436914 ,-0.5024466022405748 ,0.8142216618862862 ,0.027686979500043972 ,0.5906891343987629 ,0.18055237547882372 ,-0.4154990876539285 ,-0.37700487985490055 ,-0.13558390345222573 ,-0.6319880662256372 ,-0.5969672540141114 ,-0.5536336512580923 ,0.7339877294054217 ,0.24889311511137566 ,-0.5043082157744782 ,-0.7706700766851854 ,-0.4372380041033974 ,-0.00094541955182606 ,-0.37007415354989237 ,0.06005604796866437 ,0.012574524540152374 ,0.9160214098034563 ,-0.31034308129041954 ,-0.9780925733967161 ,-0.7173693194061737 ,-0.8609001711848147 ,0.6126938653399503 ,0.3062388091919017 ,-0.7190228800207941 ,0.1996782188295831 ,-0.6016291740834552 ,-0.411477855329352 ,-0.11837696708608067 ,-0.6596194370646091 ,-0.11503565874302313 ,0.07133923084372967 ,0.5929555141323763 ,-0.9628482134384174 ,0.722660204809525 ,-0.0992950850073451 ,0.4282839992756572 ,0.7865784329071718 ,-0.7785226430124556 ,-0.3829570320708543 ,0.8150064182256792 ,-0.7313015117617162 ,-0.8495468885987452 ,-0.03887594418099967 ,0.9139750117458262 ,-1.1709705943204571 ,-0.66826318855078 ,0.9592575047412939 ,0.9368014078727169 ,-0.2768350308289101 ,0.7522696200163599 ,0.9086846101901564 ,0.7195312414684264 ,-0.45356419251767677 ,0.6029728420040593 ,-0.9918933614278755 ,0.05435798645523296 ,0.9633224938585383 ,-1.1984565993940743 ,0.9496540274383217 ,0.7975056065982565 ,0.1043350291147151 ,0.0885913953466397 ,0.3008889320415469 ,0.05888027428916339 ,-0.167800688352257 ,0.7121215107565255 ,-0.7948984656668442 ,-0.733292969840873 ,-0.25105637459835595 ,0.76921620564162 ,0.7769519163021972 ,-0.5401203300701252 ,0.8460904080462388 ,-0.3938562141047717 ,0.4810140164337611 ,-0.04056945255532821 ,-0.339542880892434 ,-0.5711828324376276 ,-0.5203890079525071 ,1.1225565023453812 ,0.7600536348462467 ,0.20779340684115732 ,-0.5994341045790815 ,-0.29265904052694164 ,0.9264252212832473 ,0.4900478216104009 ,-0.4521651507216006 ,-0.30218447775926083 ,0.06691670366001749 ,-0.9438480616921019 ,-0.2883750494188447 ,-0.17214494554090803 ,-0.7486353212467134 ,0.8680403886142402 ,-0.8902743759803894 ,-0.7409332306500094 ,-0.3563064946805953 ,-0.9967511514231469 ,-0.8551442202967523 ,1.069509594751664 ,-0.15735826528506394 ,-0.005408202302906645 ,0.7139065545614235 ,-0.2450990674934257 ,0.09300828586213505 ,0.3791087712630581 ,0.37314120491271485 ,-0.13371488737735207 ,-0.875949018306226 ,-0.9723413438727236 ,-0.3902336724416046 ,-0.33537389421231917 ,0.2795892966102799 ,-0.38879908417796144 ,-0.7666141353897297 ,-0.6547307014792318 ,0.8969178320824226 ,-0.310139882974408 ,0.3824404790181386 ,-0.2147008467845703 ,-0.8707674463042331 ,0.29797517290893366 ,-0.7621628572697995 ,-0.07191389376896454 ,-0.3503130203576551 ,0.6809115087943072 ,-0.066002079013331 ,-0.1080962092105447 ,0.6359111888573329 ,-0.05356299072655704 ,-0.7935526947803218 ,-0.7595089352453573 ,-0.6739241588428605 ,-0.3735355244109836 ,-0.24402315853510342 ,0.15738039217121777 ,-0.6384236913810889 ,0.8118272138514753 ,-0.030610563915525177 ,0.7361839722000708 ,-0.5785487604931155 ,-0.7025547270279416 ,0.48343720990888905 ,-0.8774600849921529 ,-0.38542632381503705 ,0.7132463742350916 ,-0.5041118362044267 ,-0.7929597869314402 ,-0.10131219729189672 ,0.2277987640712476 ,0.5519965081216023 ,-0.060820693719943836 ,-0.2494214730680408 ,0.04474371569735196 ,-0.014380516404692914 ,-0.15983960566453936 ,0.88357743391055 ,-0.692287507697977 ,-0.2877312962618172 ,-0.4593571475561713 ,0.9660847449191446 ,0.7359014450272213 ,-0.9978885847282284 ,1.129868618674825 ,-0.33383837095992724 ,0.946531226457381 ,0.047021101813982204 ,0.4902391751145835 ,0.3200894018613869 ,1.0540375893320064 ,-0.3043891058566276 ,0.26270770834946877 ,0.07105867309589202 ,0.5267587384780164 ,0.30898187126395926 ,0.6997989583526784 ,0.24585786206962423 ,0.644132845787701 ,-0.5521264206480321 ,0.620589681230517 ,-0.3454941782974217 ,-1.0617859502090534 ,-0.5891831102002171 ,0.21734608720997908 ,0.2978167262794127 ,-0.7152659453412732 ,0.7291672888962478 ,0.367985828766975 ,-0.6066785710163621 ,0.5987645335537205 ,0.5707585437029938 ,0.8451092316401498 ,
